1343 100
share 0.00026861374 0.0017361508 -0.003020133 -0.00329968 -0.0034140174 -0.00028337198 0.00065512356 0.00084988866 0.004421806 -0.0060917684 0.0052186768 -0.005664516 0.004337685 -0.003421695 0.003747444 -0.0012486463 -0.0034526642 0.0012627067 -0.0047471635 -0.0008794249 0.005710882 -0.004316622 -0.003818318 -0.0075013023 -0.0046507893 0.0043239305 0.006433938 -0.0034126404 -0.0048138485 0.0032339126 -0.0028763316 -0.00048566412 -0.00042742063 0.0015276226 -0.00528845 0.0014469638 0.00033942537 -0.0006196493 -0.0062167007 0.002949053 -0.0006522827 0.0034885933 0.0056606987 0.0043658395 0.002866125 -0.0043552974 0.0038823856 0.002980789 0.00022716618 -0.003936644 -0.004246827 0.004042689 0.0015432789 0.0057625896 -0.0014367471 -0.0018455538 -0.002176639 -0.0020453797 0.0014898642 -0.0023550934 0.00033968233 -0.0040417993 -0.0032374738 0.0036863163 -0.0012697038 -0.0004256086 0.0013125269 -0.001435145 0.005482722 0.004640521 0.004713899 0.003824494 -0.0010568625 -0.0027606515 0.0025402873 0.0010676264 -0.003926869 -0.00366145 0.0020192696 0.0036636302 0.005361326 0.001134643 -0.0027473008 0.0053613945 -0.00047866683 0.0010532171 -0.0020320998 -0.0074337446 0.0033339811 0.00064902165 0.0059629227 -0.00013565412 0.0009816334 -0.0013306661 0.0012119389 -0.0027863283 -0.0027834596 -0.0015498564 -0.0020108817 0.00689787
price 0.004918205 -0.0009266844 -0.0015065946 0.0007410238 0.003529812 -0.002499551 -0.00033305003 -7.377623e-06 0.0007704077 -0.0025438124 -0.00080570235 0.0033771466 0.006120478 0.0028068903 -0.0034938927 0.0026129917 0.0019175595 -0.0029912344 -0.004999623 0.003355669 -0.0028004495 -0.002560775 0.001285867 -0.007827374 0.0037113014 -0.0051791584 0.0012830656 0.0008566777 -0.0042758277 -5.6617795e-05 -0.00041251644 0.0010782168 -0.0019298497 0.0030946827 0.0015257833 0.0014413245 -0.0047340374 0.005593908 -0.0038276091 -0.0013505204 -0.0024273782 0.0036037434 0.00393375 -0.0050744065 -0.002763545 -0.0003355009 -0.0018100493 -0.0022799522 -0.0017734776 -0.0020101334 -0.0038003502 0.0041032694 0.0050219265 0.00016098334 0.0019269094 -0.0055736373 -0.0043469924 0.002283594 0.0026030422 -0.0011383636 0.0050566043 -0.00612399 0.0015159398 0.0003942646 0.00068766676 -0.0045176074 -0.0028367061 0.00015496236 7.6407836e-05 -0.0023972073 0.00028595925 -0.0005726975 -0.0021203663 -0.004383552 0.001982676 0.0027826098 0.00025342946 0.0047551007 -0.0036226579 -0.005374932 0.0009018786 0.0001128226 -0.0029369001 -0.0012208148 0.003420787 -0.0014255161 0.0014094305 -0.005199795 -0.005628005 -0.0021488057 0.004478277 0.00027654268 -0.00056073844 0.0008158373 0.004671685 -0.00027486344 -0.0038199055 -0.0006303341 -0.0043411804 0.0071644015
stocks 0.0035523775 0.00097362493 -0.0029211498 0.00065369287 -0.005952761 0.005120451 0.0011906069 -0.0042267856 -0.0023921635 -0.0022861103 -0.004082632 -0.00066990213 -0.0013018595 -0.0022478797 0.0004985398 -4.325277e-05 0.0032624158 -4.2010375e-05 0.001740697 0.0040826085 0.005659529 -0.0014047531 0.0016357411 0.0010204174 -0.002354996 -0.0014298086 -0.0005801314 0.00034433475 0.0018225346 -0.0031415566 -0.0058474904 -0.001984161 0.00076642085 0.0034536703 -0.005236274 0.0006083067 -0.0051457505 -0.0018619002 -0.0072866 -0.00050528406 0.002392774 -0.00080615043 -0.00015349897 0.0029906258 -0.0015765803 0.0051693902 -0.0031729625 -0.0024190338 0.0020607254 -0.0010757328 0.002637329 -0.0016535781 -0.002074786 0.004878304 -0.0010051881 -0.003396812 -0.0045382823 0.006124615 -0.0037886235 -0.0031852017 0.0025205018 -0.0010462283 -0.0013250563 -0.0015275282 0.004285639 -0.0070610456 -0.0026665812 -0.008073447 0.0024651084 -0.002312094 0.0041247145 -0.0011792987 -0.0039565642 -0.002035147 -0.0042276313 0.0066771135 0.0046864524 -0.0029358405 0.0056289798 -0.0027068956 0.00062411727 0.0018046808 0.004416187 0.004242372 -0.000990197 0.0049707657 -0.0045991666 -0.007308141 -0.004027028 0.0014228687 0.004953448 0.0040823943 -0.0027468556 0.0036160662 0.0066645704 -0.003556073 -0.0025190413 0.0017441636 -0.0033695367 0.006562279
bank 0.004336808 0.00056579645 -0.0044645104 0.0005078218 -0.00024237053 -0.0016366404 -0.0041401475 -0.0028432258 -0.0038870643 0.0017723488 0.0041478304 0.0028709983 0.00017635283 0.0012126609 0.0015483318 0.0013833161 0.0035909733 -0.00016613203 0.0014507887 -0.0014184923 0.0016600367 -0.0011427648 0.0015438125 -0.007051963 -0.0054009147 -0.0035540876 0.0040612123 -0.0025843887 -0.00087352586 -0.0044462243 0.0025195275 0.0019673188 0.005858941 7.528947e-05 0.0011555345 0.0022581902 -0.0029896593 -0.0010464122 -0.00671448 -0.0047347336 -0.00030210175 0.0037827634 0.0011783134 -0.00021770637 0.0054906523 0.0010117535 -0.0005859359 0.001542938 0.00547209 -0.0006175957 -0.0023701258 0.0039098966 0.0029133472 0.0023572054 -0.0024384954 0.0018179542 0.00433776 -0.0015364428 0.0009746356 -2.0540323e-05 0.0014430766 0.0011662515 -0.0054248427 0.003340415 0.0007213881 -0.0068502 0.0028794175 -0.0067241346 0.0024470089 0.0036685076 0.0057239872 0.0010120341 0.003986035 0.0017054754 -0.00373493 0.0007024413 0.005001551 3.4056052e-06 0.0039356104 0.0006680385 0.005015039 -0.004059566 0.0027541989 -0.002861411 -0.0013185095 0.005318952 0.002243661 -0.0055974233 -0.0057755383 0.0017791822 0.005410832 0.00066715485 -0.006119113 -0.0010258063 0.0033890957 0.0018244669 -0.0056674965 0.0028767397 -0.0015765731 0.0051041367
' 0.0059618945 0.0039208545 -0.0032815244 0.004403606 -0.000989247 -0.0012026016 -0.0003153648 0.0019355946 -0.0032540213 0.0038126747 0.00011455955 0.0020515008 -0.0028689848 0.00087106007 -0.002679871 0.0012897372 0.0010743439 -0.0042062877 -0.003580345 -7.4785517e-06 0.005879813 -0.0014752834 0.0021648523 0.0019055364 -0.0011256736 -0.0028032954 -0.002030957 0.0036905957 -0.0008430025 -0.004855988 0.0032845302 -0.0015534393 0.0045074574 0.0043217572 -0.00018929286 0.003994176 0.0005234636 0.0016628836 0.00032155024 -0.0007224067 -0.0026079165 0.0007278437 -0.0036720794 -0.0038623142 0.002763152 0.0045152525 -0.00311619 0.0044158404 -0.0017066348 -0.0035714544 0.0049684327 -0.0011520106 0.0018152458 0.0059304642 -0.00012435378 -0.0020695564 0.0012688914 0.004018868 0.0037836547 0.001814373 0.0021281627 -0.005886776 -0.0020502282 0.0003440252 -0.0034753834 -0.0034284822 -0.0038834768 -0.0066946554 -0.0022484432 0.0014655135 0.005080901 0.0050989385 0.004189105 0.003718673 -0.00031947417 0.004631601 0.0043394137 0.0010773055 -0.003596459 -0.0007434964 1.9934054e-05 -0.0023768817 0.00068112084 -0.0026700003 -0.0021036826 0.0049746223 -0.004595885 -0.0031388237 -0.00093303336 0.0051767924 0.0042844717 0.0026386357 0.0005576643 0.0030130814 0.0028399639 0.004031805 -0.00077086355 0.0032998286 -0.005559772 0.0006675204
10 0.0049832547 -0.00218403 -0.0009073942 0.0014747177 0.0018334188 -0.0009619478 -0.0034957912 0.0024015522 -0.002473294 0.0016634652 0.0029925539 0.0002947033 0.00384009 0.0032453074 0.005816301 0.0012863731 -0.003359818 0.0013617545 -0.0014670676 -0.0047899955 0.0004277509 0.0022421053 -0.005370261 -0.003204383 -0.0040372224 0.0033441328 0.003502524 0.0020324683 -0.0039675185 -0.0016241688 -0.0025432438 0.003107874 0.0036531375 0.0058367145 -0.0044306917 0.0034282713 0.0032525992 0.0043751765 -0.0049333693 -0.004515772 -0.005227625 0.004985405 0.0010057087 -0.003911818 -0.003095833 0.0030469846 -0.0026432478 0.0009032696 0.0013150302 -0.006877517 0.0023475431 -0.0044006277 -0.00088647817 0.005541323 0.0010479809 0.001614928 -0.001416603 0.00029244754 -5.571797e-05 0.0010430835 0.0017757484 0.0005169024 -0.002343372 -0.0005420817 -0.0033860987 0.0013676238 -0.0035268692 -0.0074885474 -0.0011857086 0.003078535 -0.0031657405 -0.004519837 0.0028260765 0.003428366 -0.0042614015 0.0039465707 -9.7200595e-05 -0.0007621518 0.0018692352 -0.0053792587 0.0044273874 0.0023741683 0.0011221985 0.004641336 -0.0001670068 -0.00042812186 0.0011364304 -0.00079948414 0.0019125285 0.0035633957 0.0013384633 0.00184986 0.0014825937 0.0036505503 0.006600365 0.0042411676 -0.0018806144 0.0045304545 0.0010410285 0.007160157
5 0.004648642 0.0042770454 -0.0034290683 0.003668367 -0.0019087216 0.0016774127 0.00043268877 0.0029892311 0.002305787 0.0014633052 0.0044608116 -0.002830623 0.0034949873 -0.0021121677 0.0053104754 0.0034950846 -0.0024922474 -0.005062503 0.00034061342 -0.0022293106 0.0007905034 -0.0023076052 0.0041609285 -0.004888364 -0.0008548713 0.0027886624 0.0027555476 -0.0030070422 0.0020772982 0.0015911133 -0.002181273 -0.005197998 -0.0022655358 -0.0043252986 0.0007419894 0.0013488504 -0.0017489007 0.0037710923 -0.0050388966 -0.0044150893 0.0013768798 -0.0031607102 0.004250916 0.0039959177 0.0009071447 0.0010145608 0.002312023 0.001692674 -0.00076792884 -0.0067005754 0.0037832696 0.0022206001 0.0020667673 0.0031995238 0.00024264779 0.0041221804 0.0037734648 -0.0002402851 -0.0018514324 0.0046168785 0.0047813384 -0.0034208754 -0.0037578603 0.001140986 0.003760579 -0.0042403755 -0.00010810474 -0.0068480647 -0.0005164715 -0.0019044708 0.0049886685 -0.00052812387 -0.0031761997 -0.0027235951 -0.0023251772 0.005159711 -0.00043506443 0.003880318 -3.304782e-05 0.0021087187 0.005097875 -0.0010140446 -0.0038487783 -0.0026882635 -0.0039336206 -0.0012676739 -0.002156998 -0.005441512 0.0021112193 -0.0025391157 0.0003161639 0.0016921372 -0.002098818 -0.00065404846 0.000943903 -0.0002842892 0.0030866966 0.00044641277 0.003471172 0.0005010969
street 0.0034083282 0.002179858 0.0035636113 -0.0026717458 0.0037613388 -0.0004776755 0.0037516106 0.002905134 -0.001552731 -0.0047774455 -0.002398502 -0.0022527878 -0.00083077257 -0.00060055795 -0.0017031396 -0.0007506687 0.00019706365 0.0016145695 0.0044407016 -0.0030007209 -0.003662742 0.0005863784 0.0011247589 -0.0042399317 -0.0036876942 0.001218297 0.0024764426 -0.0024079732 0.0010890544 -0.004761704 -0.00088563043 0.0016835718 0.002872163 -0.0033726206 0.0005443406 -0.00034860714 -0.0032149774 -0.0033601653 -0.0013083022 -0.00037215673 -0.0019795545 0.0007031647 0.0025209137 0.0034811527 -0.00037479127 -0.00095596793 0.0047066784 0.0046731415 -0.0041203634 -0.0039019992 -0.0009134979 0.0027256522 -0.0041904384 0.0048385006 0.0012549646 0.0028288504 0.0020780836 0.0020927682 0.0010479315 -0.0049042846 0.002329482 -0.0010256178 0.004239956 0.0027460663 -0.0018263649 -0.0016906979 -0.004892416 0.00066125946 -0.0041304706 -0.0007833118 0.0040612635 0.0039314427 -0.0038255693 -0.0011586007 -0.0018679315 -0.0038968844 0.0014870424 0.0010240196 0.0011965814 0.002642007 0.0041359602 0.001974234 -0.002404412 -0.0038584715 -0.0036843615 0.005183331 0.00074684405 -0.003798155 0.0020427313 -0.0005994955 -0.0038610348 -0.0011527395 -0.00405785 0.0016332648 -0.003263814 0.0017091222 0.0017686002 -0.0023139582 0.0010448875 0.0032771055
shares 0.0044236933 -0.003252983 -0.0011578212 0.0011934105 -0.0053674346 0.0036945958 0.0014459399 -0.0020840575 -0.0044407872 -0.0015032762 -0.0030103566 0.0011811757 -0.0025726112 0.002084 0.004421586 -0.0012907651 0.0038891828 -0.0001998275 0.0047915643 0.0023410579 0.0022429693 0.0010011233 0.002195584 -0.00022129348 -0.0039437423 -0.001338841 0.0009002784 -0.0007754061 -0.004218188 -0.0043156166 0.0011053891 0.0012459243 -0.0013743136 0.0046258676 -0.0041181846 8.666997e-05 0.0004689483 0.0020083871 0.00042834348 0.0010178311 0.0038115669 0.0053110532 0.003476955 -0.0049567265 -0.00040216272 0.0015878935 -0.0025924218 0.0047421264 0.004692714 -0.0059823124 -0.0020753995 -0.00019913157 -0.0025131209 -0.0016250109 -0.0046148635 0.0015831772 0.0010339048 0.00069645105 0.00021940823 -0.0011114193 0.0013157055 -0.0047279964 0.0009672278 0.0033879522 -0.0012593016 0.0008410912 -0.0021071085 -0.007312245 -0.0041055987 -0.0015278753 0.003374484 0.000669185 -0.002830041 0.0003945002 -0.0025344715 0.0031144624 -0.0034515632 0.0058050933 0.0046600755 0.004586918 -0.0025810024 0.0049569295 0.003229883 0.0034489168 0.002457419 0.0024511195 0.0033051888 -0.0047782874 -0.003108483 -0.001969246 0.0050515435 0.0045363586 0.0031260923 0.0003064499 0.005132091 -0.00017499572 -0.0030699149 0.0012757209 -0.0019497928 0.0018064871
3 0.00322595 -9.18137e-06 0.0009740842 0.00073014497 -0.0034852538 0.0052816514 0.00097202364 0.0016438805 0.003858274 -0.0012600124 -0.0007015409 -0.004544628 -0.003931137 -0.0035809674 -0.003483843 0.00021372153 -0.0012019124 -0.0027934583 -0.00050531304 -0.005032062 0.0038245167 0.003756558 0.001367564 -0.0065500583 -0.0015328731 0.0038275698 0.00032542725 0.00077547075 -0.0018638122 -0.002696732 -0.0005112364 -0.0035813341 -0.0017341037 0.0036347383 -0.00038196277 0.0030955828 -0.0028236872 0.0049338588 -0.0040355986 -0.004407624 0.00043444856 0.0005136239 -0.00074820546 -0.0008133619 -0.0005829654 0.00135449 0.002772423 0.004323041 0.0016954275 -0.0047759963 0.0018788056 0.0030466367 0.003595103 0.0033810688 0.0019017039 -0.0011065704 0.0019835378 0.0008651947 -0.00081083045 -0.0006220753 5.978598e-05 -0.0018135471 -0.0051046726 0.002294792 -0.0019155625 0.003439339 0.0033137265 -0.0029824658 0.005257767 -0.0015513981 0.00071212766 0.0022154248 -0.0042624664 -0.0035736396 -0.0036850066 0.0054064756 -0.0013965619 -0.000176647 0.0024762896 0.0031483448 0.0030104283 0.0020107785 -0.000971278 0.002277007 -0.0031698744 0.0029702242 0.0023183194 -0.0063024987 -0.003552064 -0.00449086 -0.0002305736 -0.0042555025 -0.0053161825 0.005038751 -0.0017232454 0.0026683589 -0.0038778563 -0.0041366005 -0.0021476208 0.0006547713
nifty 0.0047989674 -0.0016642411 0.0012813413 0.00080851634 -0.004268755 -0.0020998507 -0.0012444478 -5.1220875e-05 0.002228384 -0.0031982348 0.0009315328 -0.0021842807 0.002659228 -0.0010782796 0.0026513592 -0.000246973 0.00087660336 0.0009729661 -0.002294237 0.0008448067 0.002111387 -0.00202069 0.0030635379 0.001906069 -0.0014785746 0.003971989 0.0020747369 0.002338914 0.00018461088 -0.002928409 -0.0039387755 -0.0016714268 -0.0013070211 0.0049155396 -0.005405824 -0.0002356269 -0.00065974053 -0.002428416 0.002272396 -0.003935471 0.0037686974 0.0045262272 0.005912166 -0.0023999035 0.00069500285 0.0036910335 0.00436805 0.0004163225 -0.0013090057 -0.0031114996 -0.0011822222 -0.0043139565 0.0030221986 0.0031526824 0.0023419957 -0.0011378598 -0.0038935153 -0.0028156566 0.0031911337 0.00011335956 0.00586392 -0.0010654947 -0.0013366467 -0.0013775192 0.0033536854 -0.0041989163 -0.0035167076 -0.0040229512 0.0048553497 0.0018156602 0.00031216996 -0.0022956468 0.0031888264 -0.0038109205 7.26786e-05 0.0031100237 0.00445007 -0.003298081 0.005324752 -0.0034592117 0.0012768975 0.00034883816 0.002991027 0.0031617722 0.0019808076 -0.0020242913 0.00038416724 -0.0014882603 -0.005010789 0.0035229493 -0.0018383543 -0.003914299 -0.0010710316 0.004827178 0.0008476292 -0.0017229519 -0.0039532376 -0.0050434866 0.0036884914 0.0036813708
covid-19 -0.0027111166 -0.0015704312 -0.000969578 0.0045254054 0.0026738516 0.0015865385 -0.001110222 -0.0015958239 0.0034887267 0.0012599304 -0.0034439643 -0.005425675 0.005061282 -0.0017845415 0.005650428 0.002475528 0.00023313858 0.0021456599 0.00017012474 0.0043817563 -0.0038186312 0.003569035 -0.004650338 -0.0029547112 0.0024387604 -0.00070875086 0.002835242 0.004772019 0.0022896503 0.002852347 0.0009971946 -0.0020706935 0.0009438924 -0.0002922643 -0.0011391313 -0.0013567318 0.002825797 -0.00036807166 -0.005367826 0.0036330945 0.0023481494 -0.0014745902 0.0035148263 0.0036620228 0.0016929448 0.0016295426 0.0014629151 0.00013979332 0.0036115288 -0.005369363 0.00013187394 0.0032491873 -0.0019937356 0.00075718964 7.125434e-05 -0.0054606944 0.0019870272 0.0045475774 -0.0026585557 0.00096474524 0.0015085976 0.0014113815 0.0039916434 -0.0038127892 -0.002778262 -0.00564106 -0.005388074 0.00093919056 -0.0005223262 0.00011934088 -0.00412461 0.0020480868 -0.0032830564 -0.0018182335 0.0006183942 0.0036528013 -0.0038067494 0.002517039 -0.0023645274 -0.0005752683 0.0042950627 -0.0007294424 -0.0018775363 -0.0041344403 0.00093648414 -0.003780915 0.0006236189 -0.006185417 -0.00086594303 0.0047877086 0.0033384329 -3.572395e-05 -0.0010549746 0.0022579164 0.006278827 -0.0018845181 -0.004742846 0.0037626366 -0.0048490427 0.002239908
jumps 0.0026397489 0.00012562823 0.0024191868 0.00029980153 0.0037956424 0.0035446552 -0.0029316472 -0.0012035905 0.0026804714 0.0021996303 -0.004592974 -0.00066510326 0.0008110899 0.0027421135 -0.0026604412 0.0018897173 -0.0025358724 -0.0032948037 0.0025580921 -0.0024305375 -0.00095798925 0.0016856219 -0.0015925734 -0.0039848424 -0.0030553176 0.0012216034 0.0030661623 0.0041255653 -9.516354e-05 0.0006576239 0.0037116467 0.00018784264 0.0034667577 0.00030847103 -0.0013718638 0.002801629 0.0033182346 0.003656092 -0.0011141798 -0.0010675775 -0.0017557462 -0.00010928818 0.001363721 -0.0021809612 0.0016890146 -0.0015122917 -0.002929166 -0.0015061083 0.0024750843 -0.0026469112 0.0012888053 0.0011071053 -0.0042943745 -0.0011783788 -0.0024573486 -0.004614774 -0.0006930364 0.0017245521 -0.0040126876 0.0009286882 -0.00019744928 0.0008458872 -0.0014736197 -0.00038810205 0.0007503758 0.0021391686 -0.00047000652 -0.0004979756 0.00096792076 0.004083243 -0.0038777366 -0.0041089472 0.002730534 0.00026381013 -0.0020984479 0.001498465 0.00048050482 -0.0010079629 0.0025452913 -0.0034135247 -0.002401857 0.00024895158 0.0028773928 -0.0036639397 -0.001352538 0.0039044595 0.00042382622 -0.00015414516 -0.0052934806 0.00034802454 0.0013129759 -0.0013777432 0.0010287331 5.6327157e-05 -0.0020196661 0.002584793 0.0040641036 0.003981594 -0.0036737444 0.0013733326
buzz 0.002639683 -0.0034489145 -0.0008633927 0.0021898127 -0.00081095163 -0.0010869515 0.0040093227 -0.0019046525 0.0006829334 0.00086936954 0.005064369 -0.0042448323 0.0014689522 -0.0036888975 -0.0009202659 -8.429934e-05 -0.003767723 -0.0018706498 0.0048795682 -0.0018912907 0.0014838246 -0.005239862 0.0016924597 0.0011486934 -0.005196567 -0.0046708477 -0.0019179479 -0.0015216094 0.0027290687 -0.0010873576 0.00048793777 -0.0046189977 0.0023670783 0.0038922364 -0.00513878 -0.0037550908 -0.0011578186 -0.002569353 -0.0013712441 -0.0030284442 0.0021153053 -0.002660551 -0.003256037 0.0048282747 -0.0030509552 0.001874598 0.0046942257 -0.004668087 0.00015282459 -0.00043601362 -0.004248156 0.004376443 0.0030604347 0.0011616631 0.0018447316 0.004070465 -0.001935954 -0.0032974281 0.0032045147 0.0025760855 -0.0016743147 -0.005089206 0.0013357353 -0.0032036179 0.00065507775 -0.003785692 0.0027503592 -0.0038384402 0.0039367573 -0.00045050628 -0.0016195793 0.004103565 0.0039718067 -0.0018241719 -0.004358826 0.0020350958 0.003479217 0.005060454 -0.0015244932 -0.0026026997 0.0007205228 0.0047826692 0.0044995877 -0.002194318 0.0017063642 0.0016777368 -0.00191896 0.0006297481 -0.005624676 -0.0038600604 0.0055234 -0.00021639642 0.00065896846 0.0018795041 0.0048175626 -0.00037295 0.003049089 0.0012770264 0.0021340018 0.004799083
pharma -0.0005963351 -0.0033572922 0.0024981936 0.0012671743 -0.0047882735 0.0016285205 0.0024704526 -0.0046141087 -0.0003134964 -0.0026137365 -0.0009970679 0.0027675685 -0.0029630715 0.0049163112 -0.00038453875 -0.00041214097 0.003868689 -0.0017938854 0.0011963332 0.003803229 0.0015071032 -0.0011800022 -0.003812331 -0.006595824 -0.0056595365 0.00012927456 -0.0027035684 -0.0016427733 -0.004491381 -0.004118188 -0.0038788281 7.652797e-06 -0.0022320799 -0.0025316565 -0.0033353958 0.0020482552 -0.000332498 5.338341e-05 -0.006005797 -0.0028871885 0.0043121553 0.0047532213 0.00029040762 -0.0038416204 0.0028431378 1.6893557e-05 -0.0033266968 -0.00010691289 -0.00068605214 0.0035421816 0.0031970895 -0.0021347096 0.0024745185 0.0028816632 -0.00015220782 0.0009161676 0.0038512151 -0.0033912957 -0.00028902444 -0.00097610237 -0.0020056278 -0.0057176934 -0.00024192294 0.0043485034 -0.0026675912 -0.0039761052 -0.0050227726 0.0019183642 0.0032350644 0.0044666883 -0.0015972132 0.003183873 -0.0028230264 -0.0019925865 0.0005980132 -0.00094491837 -0.0044083633 0.0030298415 0.0008885017 0.004425032 0.0016995841 0.00047605406 0.00307027 -0.002109574 -0.0035486436 0.0006332779 -0.0049156733 -0.006588733 0.001358508 0.0012036863 0.005882005 -0.0012204953 0.0020717292 0.0054068957 0.0057730367 -0.0014712252 -0.0015098214 -0.0049362895 0.003117118 0.00556094
's -5.338204e-05 0.003673735 0.0007101731 -0.0042953077 0.001922353 -0.003544706 -0.0027758304 0.004256316 0.0053689987 -0.0036255466 0.003740179 0.0024017824 0.0058294185 0.00021698733 -0.0018827696 0.0004214593 0.004077634 0.0019181533 0.0012740034 0.0035741515 0.0045067193 -0.0010398378 -0.0043775365 -0.0036842122 -0.0014422832 0.0024211605 -0.00095143757 0.0023415291 0.004737246 0.00206837 -0.005790068 -0.00034729083 0.0033629828 0.0055913483 0.00016254424 -0.004342748 0.003465535 0.005540071 -0.003891648 -0.0011761469 0.0043620467 0.0038929917 0.00059059204 -0.0038278562 -0.0016017988 0.0013774186 0.003317631 -0.0013386495 0.0015082381 -0.0008655607 -0.00043684785 -0.00441333 -0.003953216 0.0033700254 -0.0036345667 0.004204256 -0.0020169837 -0.00064792065 -0.0021015564 -0.0030877385 0.0008704512 -0.0009929506 0.000116109564 -0.0007655249 0.0013243594 -0.004391207 -0.0011141769 0.00029712028 0.00082239637 -0.0052681467 0.0038335582 -0.002347979 -0.0018596393 0.004511156 0.001516531 -0.0003501924 0.0036632863 -0.0021631208 0.0056714644 -0.00088489894 0.0044262037 -5.4052223e-05 -0.0044286195 0.0039009862 -0.00083212834 0.004999033 -0.0017377547 0.0014951827 -0.0011974358 -0.00019853836 0.0049302313 0.0025261757 0.003499125 0.0012414305 0.0015005234 0.00038930206 0.0016802126 -0.001976875 2.4008266e-05 0.0023131329
buy -0.0017136002 -0.0008892922 -0.0007125898 0.00092190097 -0.0038656348 0.0022091884 -0.0014115967 0.0016651478 -0.0032248707 0.0043814885 -0.004291315 -0.0013921105 0.00047560202 -0.0034598587 0.0036547375 -0.001285775 0.0010828215 -0.0018263859 -0.0011208124 -0.0024660002 0.0017260296 0.0021331708 -0.0009549933 -0.00049762754 0.0024687592 -0.002507909 0.0032282902 -0.00091816275 -0.00036319537 -0.003296457 0.0042735785 0.00055936765 0.0039823223 0.0048403176 -0.0021327585 0.00519225 -0.0029397986 -0.004432097 0.0031650006 -0.002388245 -0.0008824834 -0.002719998 -0.0032967287 0.00094108813 0.0013731996 0.0006529672 -0.0012834169 0.0010073634 0.004317757 -0.000618257 0.002330082 -0.0002158499 0.0030927695 0.0046550897 0.0028705143 0.0019091722 -0.0048193927 0.0019255676 -0.002743751 -0.00045970123 0.0011806529 -0.0006204093 0.0012120855 0.0051253736 -0.0018590299 -0.0031390295 0.001443239 0.0015411392 0.0040145842 0.0023759617 -0.0038750572 0.0016089535 -0.0021446138 -0.0027971508 0.005020463 -0.0012379027 -0.0005689518 0.00029178633 0.0007536662 -0.003322967 0.0025516602 -0.0021667797 -0.0018787712 0.0036923927 0.002881063 -0.004019871 0.0013578375 -0.006440562 -0.003533878 -0.0022236956 -0.0032023843 0.0010329684 -0.00047539338 -0.0010841957 0.005038832 0.004393014 -0.0047064726 0.0015192211 -0.005398827 0.0015627022
market 0.0024299494 0.0046218447 0.0027132814 -0.0025324216 0.00027187963 0.000586111 0.0037764942 -0.0024071026 0.0013881369 -0.001679527 -0.0023998087 -0.0033465757 0.004480534 0.001612465 -0.00097259553 -0.0006728269 -0.0014943891 -0.004506139 0.0019967265 0.0035038018 -0.003562851 -0.0033785617 -0.0052592456 -0.00079421833 0.0019863925 0.0010679273 0.0057731867 -0.0047969823 0.0006952312 -0.0029410252 0.003258332 0.00019167093 0.00054157013 0.0020572862 0.0011601563 0.004724283 -0.0015942376 -0.0029376163 -0.00082751375 5.3065933e-06 -0.00506172 0.004677142 0.00047913872 0.0038624697 -0.0019498178 -0.002962547 -0.0036490047 -0.0026803275 0.0046722624 -0.0013523978 -0.004553636 -0.0030871565 -0.00031115353 0.00088908116 0.0026340557 0.0015269382 0.00036736397 0.0054442813 -0.0008680097 -0.0010753901 0.00089961494 0.0024784512 -0.003108547 0.0045978082 -0.003277768 -0.006079167 -0.0049294317 -0.0024151534 0.00022728216 0.0019919744 0.003210199 -0.0028914842 -0.0016313484 -0.0036601424 0.0034415878 -0.0008629765 -0.0029215063 0.0008711029 0.0023445904 0.00060321786 0.0045187445 -0.0027187506 0.003296626 0.00034651608 -0.0018816701 -0.001239433 -0.002457516 -0.0009477698 0.0006968361 0.002133064 0.002644362 0.003592076 0.0034540826 0.0054068593 0.0013145459 0.004380719 -0.0048541646 -0.003949612 -0.005583251 0.004442048
4 0.0036584453 -7.716761e-05 0.0011140523 0.0015363 0.0037125684 -0.00063724763 0.0019168967 -0.000809308 -0.0034894608 -0.0055378405 -0.0022411754 -0.003500742 0.003466215 0.0012395686 0.0056121526 0.00030519135 -0.0030731708 0.004657995 0.0021458217 0.001947701 0.00010405662 0.0038666213 -2.8931152e-05 0.0009671557 -0.003130768 0.0036545263 0.0017225912 0.00146622 -0.00036954557 0.00036118037 -0.004998618 -0.0011120939 0.003595037 0.0034332476 -0.0045441934 -0.0023999477 0.0020421392 0.0009200362 0.0015558631 0.0032001024 -0.0046587833 0.0023096004 -0.0036326768 0.001007183 -0.002542535 0.0028467248 0.0039500026 0.003780871 0.0005388375 -0.002798258 -0.004820834 -0.0021564947 0.004358973 0.003745748 -0.0023894778 0.0028105767 0.0019015883 0.004713844 -0.0003954639 -0.00054385833 0.0051880507 -0.004958941 -0.0001832432 0.0041859 -0.002226049 -0.005969758 -0.0009746676 -0.0053538997 0.0044416385 0.0048329453 0.001333876 -0.00063614466 -0.0049281837 0.0019081343 0.0024039578 0.0023035 -0.004320085 0.0019363565 0.004698376 -0.00072347914 0.005187146 -0.004313427 -0.0036220828 0.004305712 -0.0029919448 -1.0096121e-05 0.0009604702 -0.0055768234 -0.004626035 0.0025087756 0.0037859182 0.003910156 -0.0052920636 -0.00082810473 0.0027148908 0.0016539091 0.0013205587 0.0011309894 -0.005118077 -0.0029855785
circuit 0.002260614 -0.0043116626 -0.0048951367 -0.000738224 0.0021608109 0.0019386125 0.0008276238 -0.0026882936 -0.0029207985 0.0032322728 -0.0040639155 -0.0034329328 0.0033822658 -0.0044449284 -0.0019538566 -0.0007316284 0.004071951 -0.00044904163 -0.0010866217 0.005096448 -0.0011655316 0.0017179727 0.0016090259 0.00021014057 -0.0022565727 0.0040026787 0.0053681536 -0.004628055 -0.0027151129 1.1887037e-05 0.00037707124 -0.0036354214 -0.0037564049 0.0055026184 0.0005440461 0.0039036993 -0.00095367996 7.132778e-05 0.0017744208 0.0020432298 -0.0026328845 0.005127638 -0.0033556635 0.0025819135 0.0043747984 0.0009742089 -0.004418996 -0.0012466675 0.0037290712 -0.006069706 0.001697401 0.0010820882 0.0033155116 0.0008084499 -0.0038742477 -0.002254756 0.00284074 0.0034199965 0.00030283217 0.0013968024 0.0024709075 -0.0040922454 0.0041762795 -0.003028543 -0.00053222815 -0.0042791804 0.0015895345 -0.00447184 0.0040335744 0.000829764 0.004216935 4.5158973e-05 -0.00427537 -0.0026532123 -0.0029268276 0.0042189737 0.0011666178 -0.0035348914 0.0018031526 0.0006667271 -6.179615e-05 0.004756003 0.0012444609 0.0032298518 0.0016110883 0.0013503336 -0.0039426982 -0.002962414 -0.0011705196 -0.0038787413 -0.0026762162 -0.0026212703 0.0005033811 0.0002630828 -0.0031682544 0.0047251983 -0.0022501345 0.003477907 -0.0022784849 0.0051893564
usfda 0.00041471675 0.00027096615 -0.0007132212 0.00096527586 -0.003892401 -0.0034180672 0.0051430142 -0.004999647 0.00045015753 -0.00071067 0.0046214964 -0.0023599437 0.0037685784 0.0016565598 -0.004164288 -0.003476843 0.0050126174 -0.0011392834 0.0027107878 -0.004309354 -0.0009338321 -0.0044349604 0.0035286793 -0.00048449019 -0.0031151485 -0.0018573496 0.0046096263 0.002695134 0.00043186225 0.0014816987 -0.0056153676 -0.0056191483 -0.00071635895 0.0036101607 0.0011680506 0.0048561087 0.002621616 0.0043929904 -0.0055739107 0.0009045816 0.0024736163 -0.001770048 0.0038496861 -0.0011048152 0.003197366 0.002245293 -0.0028844278 -0.0044311886 0.005661234 0.0028867 0.0019855467 0.0026862675 -0.0010695207 -0.00037048297 0.0020473264 -0.0043110354 0.00011461712 -0.0002600219 0.004537571 -0.0021885105 -0.000701939 0.003571086 0.0029302267 -0.0012404455 -0.0017231968 -0.0057811406 -0.0017579935 -0.006470992 -0.0016427399 -0.003243116 0.0036706121 -0.004555672 -0.0026234845 -0.003538888 -0.0022298999 0.0014861055 -0.0024864348 0.0024509383 0.00030738738 -0.00298646 0.0020449192 -0.0014802329 -0.0009854864 0.001570755 -0.0025256423 0.001722592 0.0028978193 -0.0028873065 -0.0011076013 0.0014039328 0.00027395255 -0.0044807694 -0.005260268 -0.00089912576 0.0029519189 0.0017418924 -0.0018553394 -0.0021728536 -0.0039796997 0.0009016066
hit 0.0064079724 0.0047723004 0.0005210047 -0.0021866746 -0.005819899 -0.0021544038 0.002295335 -0.0043455907 0.003425554 0.0045664757 0.0029885117 0.0043677087 -0.0022028752 0.00015712962 0.0042407466 0.00089402293 0.0024078428 -0.0016988746 -0.002561145 0.0039292066 -0.0040093535 0.0021352733 -0.00344021 -0.00030810462 -0.0015888896 -0.005155342 -3.2149762e-06 -0.0017830017 -0.0017119064 -0.002297496 -0.0021815486 -0.0025164033 -0.0032160925 0.0020984332 -0.0043789833 0.005142879 -0.0026397286 -0.0032700228 -0.0029451575 0.0014036528 0.0012223835 -0.0037396953 0.0005889707 -0.0050162906 0.00234046 -0.0017304145 0.0019616613 0.00045544136 -0.000898146 -0.0046345294 0.002103971 -0.0025460545 -0.0031098798 -0.0037885532 -0.0009769818 -0.00033597945 0.004353584 0.0009188867 0.0032352759 0.004765365 -0.0027604566 -0.0010943298 -0.0010223178 0.0027033407 0.004973898 -0.004494817 -0.0059021283 -0.0029091875 -0.004331068 0.00020078178 0.0055136555 0.0019360686 0.0041735666 0.0019512551 0.002508805 0.0017479064 0.0045693037 0.0014407639 0.0017281531 -0.004739715 0.0032167903 0.0039458657 -0.0008623576 0.0031096963 0.0010036965 -0.00043575576 0.00019920093 0.002627377 0.0017173362 0.0013107918 -0.0012372462 0.004548651 -0.005946878 0.0018183279 -0.0021658337 0.0055327043 -0.0032683397 -0.00074348383 0.0026277148 0.0037494877
yes 0.0049674315 0.0038000625 -0.0019044272 0.0028647764 0.0042094886 0.0010954458 0.0015647432 0.0021894777 0.00096564007 0.00015132099 0.00024710657 -0.00039489818 0.0014099963 0.00042820355 0.00073233363 0.004673359 0.004478203 0.0021922302 0.0016727019 0.0007494915 0.00040166787 -0.002200191 0.0033458408 0.0004477449 -0.0021876304 0.0040739975 0.005806958 -0.003432324 0.0016626513 -0.0050836485 0.0022455459 -0.0051071546 -0.002416289 0.0054143276 -0.0034695482 -0.0023586573 0.0009882206 -0.0029616281 -0.005435336 0.0026256714 0.0020739608 -0.004335946 0.0005079398 -0.0015085329 0.0037370012 0.0006188553 0.00078056543 -0.0017388338 0.0030518887 0.0021435143 0.0033977912 0.001441867 0.0014541355 0.0011534626 -0.004372826 -1.7040056e-05 -0.000115154944 -0.0044334093 -0.004247924 0.0029510523 0.003569579 -0.0004377764 -0.0032542744 -0.0018269997 -0.0008227323 0.00047367424 0.0020732319 0.0004369123 0.004974552 0.0022268852 0.002034149 0.001955773 0.001837754 0.0030948282 0.004441955 0.005261458 -0.0035653969 -0.0005523367 -0.0014178125 0.0032160871 -0.00029084424 -0.003999009 0.00038841413 0.00049919053 0.0047878083 0.003371166 0.0012088269 -0.0032320167 -0.0028533756 0.0005548255 0.0022924426 -0.0009652352 0.0017649746 8.9371235e-05 -0.00043345385 0.003269602 0.0020092328 -0.0015135282 -0.0032045997 -0.0025575478
rally 0.0023256312 0.0020216159 -0.0008235725 0.0034938802 0.0032550422 0.002507181 -0.00015942969 0.0019016975 0.0038783036 -0.0028342789 0.00026022672 -0.00323461 -0.00089886034 0.0007657875 0.0017976234 -0.004626477 0.00035429455 5.1430867e-05 -0.00026913002 -0.00047918502 0.0015161082 0.0028487553 -0.0037491918 -0.0014310221 -0.0033770797 0.0010951668 0.0053269397 -0.0005634051 -0.0011568221 0.0020004783 0.0019957845 -0.003598261 -0.00090328517 0.003091606 0.0016206442 0.0014204246 -0.0039013287 -0.0033064892 0.00025153646 -0.005108906 0.0038296569 -0.0044782846 0.0011542354 -0.0043810774 0.0021543403 0.0030048303 5.0697075e-05 0.0032466294 0.003221125 -0.001346559 0.0029551373 -0.0011970708 0.0023416807 0.0016687417 0.0044706212 -0.0036730797 -0.003268146 0.0019157951 0.0040942957 0.0038171245 -0.00074439705 -0.0016474649 -0.0024924432 0.00010755264 0.0030324636 -0.0046694935 -0.002072261 -0.0059285387 0.0019284687 -5.128964e-05 0.0005980813 0.005081111 -0.0017062948 -0.00049679325 -0.0029316696 0.0013214 0.0044635586 0.005376571 0.0036754862 -0.00034455434 0.004521153 0.0028677087 -0.003576666 0.0026641088 -0.0025403681 0.0043427725 -0.00043947643 -0.0029149035 0.0029297862 -0.00037906395 -0.003239423 0.00020947366 0.0018089506 0.0038041933 0.0026759955 0.00016584991 0.0044050626 -0.003189839 0.0026847979 0.0026135193
hdfc 0.00037155038 0.0032677876 0.003737457 -0.0051034107 0.0015025894 0.00082550244 0.0032129942 -0.0006321429 0.0010793816 0.0017730623 -0.0022489238 -0.0016984665 0.0047333133 0.0035460247 -0.0029809342 -0.0011674628 -0.003271156 0.0022648894 -0.0014455938 0.0011181729 -0.0038342662 -0.003232052 -0.004909609 -0.004519397 -0.0008102174 0.0033491403 -0.0024308537 -0.005031913 0.00012278273 0.0033092871 0.000620359 -0.00431101 0.0033055951 0.0031629938 0.0027208547 0.0025005718 0.001476047 0.0033152986 -0.006701176 -0.0025748066 -0.004441147 -0.0021675136 -0.0030129377 -0.0018902044 -0.0047174725 0.000610122 -0.005203343 0.0021078945 -0.0037181915 0.00014467219 0.0016876275 -0.0043291016 0.0024644642 0.0015163994 0.00042983625 2.118406e-05 0.003990734 0.0037188993 -0.0014612989 -0.0025838565 0.0029068626 -0.0026388718 0.0012066966 0.0013195827 -0.003606902 -8.3901024e-05 -0.0031493476 -0.004412416 0.005457156 0.004296237 0.0019500155 0.00083036994 -0.0009679147 -0.0051191077 0.004784083 0.0023579786 -0.003013014 -0.003958061 -0.0003036125 -0.0021753903 0.00046328787 -0.0032812345 -0.0050644935 0.0036008111 0.0027479392 -0.0011535003 0.0038539504 -0.0010152175 0.0030201348 0.004188049 -0.0034183115 0.00016533695 0.0027474673 -0.0025892195 -0.0005975338 -0.0019352864 0.0016639899 -0.0034172244 0.0027772377 0.00030428913
investors 0.005562649 -0.0038553525 -0.0054472773 0.0038110192 0.0038416665 0.0037880316 -0.00062837487 -0.0012432738 0.0012915011 0.0012951324 -0.004584876 -0.00432324 0.00019285224 0.0031003521 0.002911899 0.0020620523 -0.0006193346 -0.00024677534 0.00075940567 -0.00015252491 -0.0028532078 0.00382024 0.0030809997 -0.004529541 -0.0029907727 0.004376013 0.00086881267 0.002766928 -0.0045218254 -0.0007881257 -0.0029148834 -0.0026966745 0.0016276984 -0.0012700848 -0.0049514635 0.0012528397 0.0019813448 0.0039512976 -0.0067227487 -0.001726644 -0.0054481677 0.0044837845 0.0022930028 -0.004199048 0.0013061109 -0.0031102179 0.0048695644 -0.0021009927 0.0026108336 -0.0050038043 -0.0034538934 0.002348517 0.0039101904 0.003789896 -0.0053822845 0.0022687688 0.0011211903 -0.0026045619 -0.0025244027 -5.1013176e-05 0.00038534525 -0.0059677516 0.00061925827 -0.00027583502 -0.0012206963 0.0018501349 0.00067768025 -0.006173332 0.0019009867 -0.0038576475 0.0011430904 0.001595599 -0.0022106266 0.001781838 0.0020274664 0.00049535884 0.002640799 0.004504464 0.00035806882 -0.0047252374 -0.0011175326 -0.002006429 0.0013779606 0.0033744422 -0.004573318 0.0022546072 0.002644183 -0.0007406804 -0.0007973055 -0.0037150376 0.0030633283 -0.0028806333 -0.0053798426 0.0017962543 0.00396735 -0.0011816111 -0.0035800177 -0.00022933136 -0.00031880327 0.002237438
could 0.0010544974 -0.001009753 -0.0022064517 -0.005071817 0.0011673413 0.0049510794 0.0042517246 0.002686371 -0.0010706765 -0.0014978657 0.0044791657 0.004176627 0.0054025804 0.0047749565 -0.00025368037 0.0029214837 0.0015880346 0.0001481732 -0.00075453945 0.0026852891 -0.001394022 0.0010535503 -0.0021165798 -0.0016526397 -0.0056362716 0.0015015082 -0.0026175235 -7.403771e-05 0.0030543322 -0.0017088782 -0.005586708 -0.0016912502 0.0026554037 0.004791375 -0.002461792 -0.0007400956 -0.0017686182 0.0052932524 -0.00230455 -0.0042506196 -0.000513684 -0.0011110095 0.00058988185 0.0019483353 -0.002409902 -0.002967471 -0.0045679817 -0.0026982087 0.005131645 -0.0062042377 0.0050680395 0.0012459961 0.0028196669 0.0010373477 0.00032588496 -0.0054447316 0.0025661518 0.0015517256 0.00034916875 0.002193929 0.0009882409 8.678588e-05 0.0014270679 -0.004804109 -0.0027173853 -0.0002998214 -0.006146153 0.0015173268 -0.0008113805 -0.00515802 0.0025918253 0.0005743792 -0.0015146144 -0.0015591364 -0.0044757724 0.0010365538 -0.004138551 -0.00066964224 0.0007897736 0.0036649522 -0.00063459825 0.0036807805 -0.0038521502 0.0038398914 0.00096533506 -0.001575794 0.0027180093 0.0014342048 -0.001053852 -0.00011796167 -0.0012275269 0.0035123855 -0.0007609359 -0.00032677365 0.0036120813 0.004766933 0.0021618456 0.00141395 -0.00022032595 0.0052557406
6 -0.0028244348 -0.0006855344 0.0039226767 0.0021827454 7.92587e-05 -0.0022841124 0.004061898 -0.0026419368 -0.004408801 -0.003492154 0.004337813 -0.0037366282 0.0052266014 0.0013564534 0.0044462755 -0.004585415 -0.0031027577 -0.0037377686 0.0019251533 -0.0011956848 0.0026870226 -0.0018188957 0.0003817779 -0.0025943422 -0.0019572098 -0.0014171238 0.002169942 -0.0044585443 0.0017412811 -0.0012739003 -0.0050269873 -0.0045422213 0.0017451391 -0.004252057 0.0015637431 0.00091604434 0.0005472116 -0.0040801493 -0.006166771 0.0033181717 -0.003179839 -0.0040383856 0.0025983772 -0.0008924657 0.0004179516 0.002466394 -0.0028751255 -0.0036092408 -0.0010367347 -0.005049041 -0.002127652 -0.003206182 0.002301423 0.0012321373 -0.0054948097 -0.0040757223 -0.0034454663 -0.0041300976 6.066563e-05 0.0047031804 0.002096074 -0.004183363 -0.00093719637 0.0032371173 0.0022252428 0.0016385999 0.00064313965 -0.0036942083 -0.0024519095 -0.002659774 0.0045438474 0.0018897092 0.0041003413 0.003008575 0.0030026357 0.0037666028 0.0017283395 0.0030259006 -0.0028248553 0.0022689267 0.0041101803 -0.0011676543 -0.003108926 0.0052810977 0.0004046688 0.0015937599 -0.003670674 -0.0044351956 0.0027088437 -6.1898725e-05 -0.0024136023 -0.002258811 0.0015082863 -0.004216176 0.004800121 -0.0021540772 -0.0043236082 0.0006820486 -0.0053723766 0.00071079476
auto -0.00233892 -0.00241296 -0.00326237 0.0027431254 -0.0019212462 0.0056958003 -0.0003811968 -0.001742308 0.0011261433 0.0013847891 9.7444434e-05 0.0031174247 0.003363656 0.0024727217 0.005438025 0.0021497214 0.0026729316 -0.004893433 -0.00447856 -0.00095793296 0.004495154 -0.0044973497 -0.0053086104 0.0010424367 0.0020025105 0.0009590386 0.005984819 0.00084623916 0.0038931053 0.0032356372 -0.0016254948 -1.4319231e-06 0.0027538817 0.0046700295 0.0017924126 -0.0013943523 -0.0030324957 -1.3030989e-05 -0.0050486485 0.0031387014 -0.004670378 0.0026242817 0.0010331256 -0.00018114511 0.004518075 0.0017234974 0.0027786216 -0.0035410202 -0.003158232 -0.0045104953 -0.0027765397 0.00445428 -0.0030912366 0.0010703818 -0.004609017 0.0026003981 -0.0021745365 0.005124428 0.0017583265 0.0041186446 0.0024724498 -0.0027419263 0.0012658724 0.0035967769 0.0036805244 -0.00516216 -0.0056567653 -0.0047525973 0.0033271285 0.0038969049 0.0013601277 -0.00011607796 0.0014793058 0.00269854 -0.0044136858 0.0034241811 -0.0010745155 0.005087104 -0.00017127213 0.0029954382 0.0002718511 0.0015480816 -0.0024237088 -0.0015182137 0.0051256344 -0.001128409 -0.0041986997 0.0027817234 5.757811e-05 0.0012957772 0.0059628286 -0.003296401 0.003985766 0.0035314045 0.001454611 0.0027061664 -0.0012149864 -0.0041685575 -0.0053441874 -0.00163339
falls -0.0034565085 -0.003998193 0.003563605 4.119011e-05 -0.004898976 0.0051693404 -0.0012485858 -0.0011866601 0.00123809 -0.0024795423 -0.0032790462 -0.002566647 0.0006519618 0.00404263 0.0026768572 0.0039745183 -0.00024712802 -0.0014255608 0.0022158104 0.0017253624 0.0010154621 -0.0052047363 -0.004232301 0.0037275266 -0.0028382693 -6.704985e-05 0.0050275796 0.0003246549 -0.001344812 -0.003933341 -0.0033113866 -0.0025268728 -0.0012319515 0.0027756745 -0.0019858992 0.00025078066 -0.0036554746 0.0011111173 -0.0038939372 0.004485648 0.0020622213 -0.0039161486 -2.373988e-06 0.0026366687 -0.0025286262 -0.0016393033 -0.0018255416 -0.00036612537 0.0028815945 0.0029627895 0.0020625833 -0.002334795 0.0020062835 -0.0006815599 -0.0042544003 1.22313195e-05 0.004801897 0.0005061995 0.001981096 -0.0018655603 -0.0005426674 -0.004832256 0.00064155523 0.0012882702 -0.0028676407 0.003193276 -0.0052078357 0.0011411901 -0.0020137557 -0.0013240983 0.004770204 -0.0028724915 0.0038295803 0.00039806886 -0.0021644928 0.0028539468 -0.0022778963 0.0050040884 -0.0026402022 -0.0032609643 -0.0025291531 -0.0037344766 -0.0021207992 1.9397481e-05 0.0021019704 0.005162322 -0.0025134052 -0.0036174392 -0.0027665128 -0.0035177623 -0.0038850398 -0.004003486 -0.002847904 0.0036220527 0.0007722681 0.0015387125 -0.0037232484 0.0041562687 0.00051664875 -0.002087032
term 0.0044310293 -0.000957464 -0.0046675336 0.0007509268 -0.00551311 -0.0014911584 -0.0016734892 -0.0051958617 -0.0010573167 -0.0046024807 0.0032318719 -0.00052895764 -0.0019084781 -0.0021136797 0.0013000743 0.004054534 0.0048078406 0.0035668225 0.0015822641 0.00021500372 0.002689924 -0.0024479453 -0.0039047191 -0.0050766114 -0.00078855763 -0.0037486888 0.0011964204 9.8050405e-05 0.0025788264 0.0038548957 0.0018149079 -0.001211425 -0.0027389736 0.002484519 0.0018113726 -0.0012788465 -0.0011355347 -0.0020159082 -0.0039874767 -0.0047862786 -0.0031155068 0.0029562162 -0.0023965896 0.0037502053 0.005007407 -0.002497712 -0.0023128807 -0.0015711418 -0.0011659925 -0.0029579054 -0.0014439316 -0.00071650464 0.0012142212 0.0011293978 0.0036815403 0.0028203093 0.0020218017 0.0007594405 -0.00037132812 0.003703974 0.0014259187 -0.003225189 -0.00038331517 0.0029511156 0.002066271 0.003869202 -0.0033832712 0.0029322307 -0.0027259435 0.0011297911 0.004584799 -0.0036002514 0.0022746518 0.0036840995 -0.0041560684 0.0024403983 0.0030386383 0.005338355 0.004488296 0.0033198015 0.0043691387 0.0019803857 0.0009850767 0.004350483 0.003708859 -0.0025142897 0.0035787157 -0.0052522593 -0.0056574764 -4.6648136e-05 0.0015468727 0.002724707 0.0032596523 0.0054502944 -0.0038350595 0.002132188 0.0035091199 0.0006036751 -0.002003237 0.0053876406
fall 0.0040288866 -0.00078852265 -0.0005920037 -0.0011594126 -0.004860802 0.0038657996 0.0051407735 -0.0031522368 -0.004630297 0.002510317 0.0020614418 -0.0026074457 0.0044425046 -0.0049057286 0.00026754456 0.0042541255 -0.0036036954 0.004417449 -0.003988406 -0.0019012365 0.0011101773 0.0016197524 -0.0025786129 -0.0018654108 -0.00091089244 0.00073448144 0.0041124267 0.0047270446 0.0033783151 -0.003186724 -0.0053001475 -0.0020857726 0.0038834636 0.0055363863 0.000623371 0.003051778 0.0036464604 -0.002401616 -0.0007554815 0.003271745 0.00025509746 -0.0028623084 0.0034975759 0.004742268 0.0019522674 0.0041245273 -0.0019409806 0.0016674655 -0.001193901 -0.006294864 0.0017470926 0.0027515122 0.00041932735 0.0040015923 -0.00024023779 -7.004379e-05 0.0009367388 0.0008860731 0.0040087146 -0.0040195957 -0.002163867 0.0009314425 0.00022032709 0.0008489607 0.0042781485 0.0023837253 -0.0015165776 -0.0068502105 0.0015656503 0.0012664777 -0.00039199623 -0.00069411355 -0.0026261662 -0.0012139342 0.0016381269 -0.002963676 0.001480534 0.004562239 0.0053970274 -0.0042088977 0.0006923716 0.0031153546 -0.0025508674 0.0008114057 -0.0018367613 -0.0022398694 0.002281483 -0.0028345296 -0.0010136216 -0.0014815627 0.0012238137 0.004132098 -8.0906226e-05 0.0055326195 0.0031639307 -0.0015938305 -0.00027560652 0.003019037 0.0035201653 0.0030634722
15 0.0005251565 0.0022395821 -0.0035400905 -0.0012720379 -0.0018686975 0.001400867 0.0031413755 0.00021958795 0.0032278916 0.00431516 0.003838936 -0.003924979 0.002606096 0.002262997 -0.0028677802 0.00412717 -0.00051528483 -0.0009854715 0.000726898 -6.627045e-05 0.0047981534 -0.005266381 -0.00046555398 -0.0059990617 0.0015411692 -0.0036179062 0.0007003125 0.0016493392 0.0031905654 0.003560119 0.0013293459 0.0014344464 -0.0039901477 0.0010758899 6.529986e-05 -0.004582596 -0.0011233835 -0.0005891899 -0.0027531683 -0.0030588508 -0.00044435993 -0.0030082962 0.0056643286 0.0017840873 0.0017298772 -0.0029059628 -0.002602287 -0.0005441505 -0.0006924463 0.0017609458 -6.1468025e-05 -0.003102854 -0.0023228573 0.0027859353 0.003404181 0.00072210387 0.00473272 0.0041611465 -0.00077008887 0.0016880257 0.0038913505 0.0027285106 0.004197541 0.0025729183 0.00048585355 0.0015372809 -0.0038727145 -0.005108173 -0.0018864112 -0.0020507274 -0.0027572985 0.0047560968 -0.004407856 0.0017772991 -0.0038136158 0.0016035119 -0.0031378637 -0.0028565044 0.0022260165 0.0034139166 0.0053047333 0.0032014262 0.0019015879 0.0051020817 -0.0027013994 -0.00052250165 0.0005772124 0.000593778 -0.0002560943 0.00096294034 0.0011984835 0.00114017 -0.0047202283 0.0023728812 0.0041220724 0.00019365041 -0.0024664057 0.004068829 -0.00056127977 -0.0030834621
rises 0.0018228121 -0.001495882 0.00011497978 -0.0051068794 0.002309266 -0.002518367 -0.0021161754 0.0027266226 0.0012956172 0.0035908867 0.0025044028 -0.004775062 -0.0012439745 -0.0021248835 0.0033655595 -4.305051e-05 0.0010043428 0.0022378524 -0.0010421688 -0.00012150035 -0.002081432 0.00044959947 -0.00497915 -0.0006562049 0.003301874 -6.0369435e-05 0.0038029775 -0.0051123207 0.0041124667 0.001704554 -1.4002058e-05 0.004044278 -0.0006752032 0.0033327818 0.00083153177 -0.00017839168 -0.0048352 0.00024223304 0.0026239136 0.00463066 -0.0047947187 -9.3650066e-05 0.001677083 0.0037393272 -0.0031134908 -0.0047133565 -0.0006875912 -0.0029120732 0.0024315296 -0.003994818 -0.0022939525 -0.0010920109 -0.0036476527 -0.0012099791 0.00071305234 -0.0006833121 0.0027072844 0.0039625824 -0.0039144307 0.0046591335 0.0044389837 -0.0042295563 -0.0051896027 0.0010809911 -0.003753118 -0.00065104786 -0.0021863352 0.00079184584 0.005417499 -0.0032397956 0.0034897032 -0.0023694702 0.0023698993 -0.004908438 0.003316156 -0.00061587786 0.00064285594 0.0008498464 0.005078266 0.0038294245 0.005412476 -0.0025595163 0.0012916913 0.0025159772 0.0022874714 -0.0035663003 -0.00492761 0.0003584717 0.0014596189 0.0021119383 0.003171924 0.000105813524 -0.000151199 0.0044963746 -0.0019578864 0.0047238665 0.001188903 0.0018024889 -0.0054886006 0.0033480816
rs 0.000932314 -0.0028361683 0.0041115466 -0.000743634 -0.0013810138 0.0004115473 -0.002790654 0.0016603682 -0.0029294165 0.0029386524 -0.0046031396 -0.0004172108 0.003923938 -0.0042016134 -0.0023749303 0.005030422 -0.002774361 0.00050129293 -0.0023310652 -0.0048753573 0.0034512721 0.0016464938 -0.0044351625 -0.006512548 -0.005357903 -0.0028274273 0.002367717 -0.0049595884 0.00062698603 0.0024303717 -0.00035463212 -0.00094476674 0.0018320883 0.0012736889 0.0033665444 -0.0041397293 0.0010558679 -0.0026926696 -0.0031414155 0.0007842492 -0.0034775932 -0.0018286678 -0.0019472634 -0.0048297774 0.00027894232 0.0047053243 -0.0026487757 0.00052721496 -0.0016237277 0.00096258277 0.0021945387 0.0011883759 0.0015110737 0.0052246596 0.0033745912 -0.0020157902 -0.004160413 -0.00020923624 -0.00069166295 -8.692942e-05 0.0010840218 -0.0034063465 0.0036149556 0.0003692943 0.004538598 -0.0056521376 -0.00396157 -0.005610293 0.0027152118 -0.004345731 0.004061239 -0.0019285228 5.5242832e-05 0.0020960444 0.003979726 0.0015736135 0.00031593343 0.0037192109 0.0048505026 -0.0036067993 -0.004073504 0.0025606856 0.00040732813 -0.003050395 0.0020798575 0.005308951 0.00087674404 -0.0049230875 -0.0048052683 -0.0045490107 0.0029737402 -0.0049118116 -0.0052851695 0.0025822741 0.0061126146 0.0013711366 0.0019822763 0.004368695 0.00044802224 0.00086395815
bse 0.0009445397 0.0015979041 0.00012282045 0.0021342284 -0.0015640499 0.0009972946 -0.002196843 0.0027828112 0.0037532826 -0.003594455 0.0029066573 -0.0008575551 0.0016114226 0.0010186682 -0.0042221495 -0.0009616161 -0.002471561 -0.004947454 -0.0006925932 0.0013683577 -0.00027763087 0.0013500848 0.0020456074 0.0027151695 -0.0035932907 -0.0032352067 0.0016365732 0.003090022 0.0039663715 0.0015724761 0.0018644508 -0.0013278115 -0.00043906583 0.0054424945 -0.0028503984 0.0043796427 -1.0646718e-05 0.0048582205 -0.00511806 0.0042160107 -0.005184635 -0.0013661259 -6.550045e-05 0.00078328775 -0.0038466486 0.005229038 0.0017562042 0.0041404264 0.0041062683 0.0025907643 -0.0033217 -0.0023841192 0.004271289 -0.0012994395 0.00028955212 -0.0032047015 0.0012719703 -0.002715455 0.00017356232 0.0018263281 -0.0034641796 0.0016029424 -0.005435716 0.0043329303 0.0015238127 0.00017795364 0.0008590231 -0.0061790664 -0.00060614286 0.0046783416 -0.0023498808 -0.0013864102 3.2063722e-06 0.0027741662 -0.0011965127 -0.0021418552 0.004363774 0.004416811 -9.591779e-05 0.0014893906 -0.0010893723 -0.00027027575 -0.0014238998 0.0016055455 0.00043603888 -0.0032219037 0.0019476074 -0.0054620737 0.0039218995 -0.001741135 -0.0038386916 -0.0025463854 -0.00026553083 0.0038190144 0.005818329 0.00424257 -0.005519648 0.0037290286 0.0016128729 0.00031376752
short -0.0031511087 0.002216694 0.0038083245 -0.0020960656 0.0037218994 -0.00020165292 -0.0032693772 -0.00246308 0.0017081611 0.0016580299 0.0042017056 0.0037367789 0.00544783 0.0022501668 -0.0039666593 0.002476287 -0.001528878 0.003197797 0.004295877 0.003910138 9.556957e-05 -2.826285e-06 -0.0030611523 -0.0043859496 -0.002041137 -0.004845202 -0.002403688 -0.005202242 -0.0042419354 -0.0043038977 0.0006364132 -0.003179712 0.0031053917 -0.0033159615 0.0015543981 0.0033002088 0.00013904335 -4.7423564e-05 -0.004466512 -0.004351477 0.0026678683 0.0007805464 0.0055689835 0.00017171404 -0.004662485 -0.0046675294 -0.0012520533 -0.003922464 0.0049091415 0.0036795586 -0.003747113 0.0035740442 0.0024981678 0.005418822 -0.0014520815 -0.0011653607 -0.002621329 0.002285097 -0.003130317 0.0048891907 0.0052763456 -0.0006183386 -0.005575044 -0.0021680107 -0.002454229 -0.0016831742 -0.003277226 -0.0055390997 0.0048616026 0.0025782455 0.0018511484 0.004885346 -0.004933658 0.0014401252 0.00026800754 -0.0036047979 0.0027563353 -0.002207914 0.0032555524 0.0012796044 0.001452582 0.0045045293 0.0002574219 0.0040906067 0.0027823257 0.0026639125 -0.0036936977 0.00359109 -0.0051252 0.0014437562 0.0044816937 -0.0032204124 -0.004284042 0.0014443111 0.0030888235 0.004094793 -0.0034437317 -0.004904981 0.0024245344 0.0043712165
low 0.0051225373 0.0011529882 0.0018608867 -0.0043278593 -0.0003995912 0.00048953935 -0.0017500512 -0.00044901783 -0.002546924 -0.0024441502 0.0034755478 -0.0016738798 -0.0028948456 0.0037504833 -0.0020884916 -0.0015236819 0.0007918951 -0.0020127178 -0.0032414543 0.0040102596 -0.0031305724 -0.0029647916 -0.0001754393 0.000100172794 -0.004989302 0.004327375 0.0032018202 0.0027329777 -0.0022855601 0.003652023 0.0022763654 0.0010315473 0.0022825429 -0.0008892014 -0.0012750191 -0.0029523317 -0.002241066 0.0040236246 -1.3381383e-05 0.0036789896 0.002307251 0.00032210967 0.005350803 -0.0019138991 0.0010092232 -0.0023460046 -0.0004279185 0.004225357 -0.0027846738 0.00011143134 -0.0020839558 -0.0021476806 -0.004115101 0.0036672375 -0.0037017136 0.0010501626 0.0021784417 0.0056592626 -0.001967287 -0.004158257 0.003916084 -0.004776467 -0.003364368 -0.0017292064 -0.00078096864 -0.0031552103 -0.0013987697 0.0012132567 0.0024942097 0.00025076626 -0.0029479312 -0.0010157012 0.002694789 0.0038714022 0.0013816898 0.0030982501 -0.0043918304 0.0018905293 0.004329852 0.0013008625 -0.00029796915 -0.00416474 0.0042986386 -0.003182252 0.005478945 -0.0016085458 -0.00024800713 -0.0061913175 -0.003270982 0.004476404 0.00083029794 -0.005161158 -0.0051123505 0.0012789088 0.0065223617 -0.0025178802 -0.0019428094 -0.0028400838 0.0016713128 0.0060597532
upper 0.0036882935 -0.0012980327 -0.0022790018 0.0015554901 0.0008408794 0.0017845214 -0.0013797873 -0.0035289472 0.0035102314 -0.0020936094 -0.0029894307 -0.0025296856 -0.0039982847 -0.002616136 -0.0028093138 -0.0010547322 -0.0044917054 -0.0036444957 -0.003145667 -0.00040014012 0.0024773045 0.0021999988 0.0018920542 0.0007922946 0.00039485455 0.00017800716 0.0042230077 -0.0017337691 -0.0041562826 4.06043e-05 -0.0034551937 -0.00063670916 -0.00020516854 0.0026968096 -0.004005301 0.0053270287 -0.0041200477 0.002728294 0.003616029 -0.0040343734 -0.0021128887 0.003627945 0.0032916437 -0.0037958375 0.002741193 -0.0044379504 -0.005000235 0.0015124925 -0.0011277929 -0.0018502816 0.004161349 0.002430705 0.004213763 0.0043048756 -0.0040141162 -0.004257528 0.0047489894 0.0044280738 -0.0007958329 -0.003696082 0.0011326536 0.0037848812 -0.004752143 0.0018256048 -0.00035229806 -0.0010459836 0.0021701204 0.0019921744 0.0050344593 0.0034420819 0.0042468514 0.0036567193 0.004376931 0.0017247404 -0.0019230623 0.0022859997 0.0029850048 0.00029285962 -0.0035009547 -0.004350897 -0.0029786918 0.0014466745 0.0011540151 -0.0008861933 0.004957671 0.003159842 -2.2425543e-06 -0.0029984703 -0.004441597 0.0022983984 0.0030996632 0.0004551497 0.0018334714 -0.0022566996 0.003238258 -0.0041109486 -0.0015672649 -0.005004775 -0.0042357086 0.0009339399
return 0.0056824707 -0.0031961114 -0.00036858988 -0.0016713797 -0.00093130284 0.0011712963 0.001421303 0.0044362987 -0.0023965428 -0.004355179 0.004637051 -0.002430822 -0.0038998395 0.003144561 -0.0010652737 0.002370248 0.00052273314 0.0039194594 0.0032822262 -0.00491014 -0.0032143772 -0.00096379686 -0.0020531411 -0.000559646 -0.0016572202 -0.0036560905 0.0050752964 -0.0043027573 -0.00087300007 -0.0035668106 0.0038343028 -0.005418801 0.00085416145 -0.0026060203 -0.0040452387 0.0014597905 -0.0021780808 -0.003417982 -0.0050205495 -0.0047112163 -0.0014906365 0.0027714418 0.0021194767 -0.004680765 -0.004157754 0.0037180416 -0.003173341 0.004219413 0.002905974 -0.0037530905 -0.0040881075 -0.00037479933 0.0047119856 0.0032646712 -0.004711776 -0.002893419 -0.00085574423 -0.0018286477 -0.0018709286 0.0014786635 -0.00055066234 -0.0023166211 -0.0009544659 -0.001490762 0.0022907201 0.0034717503 -0.0002246669 -0.0052396744 0.004817885 5.8227113e-05 0.0026108471 0.0017699488 0.0034103342 0.0022038964 0.0041569043 -0.0037615553 0.004055883 0.00012414808 0.0018377879 0.001641838 0.0031705 0.0051446105 0.0012037983 0.00019261548 0.0030769503 -0.0025877631 -0.003877107 -0.0026391374 -0.0054067653 -0.0013145162 0.0029584772 -0.0035169192 0.0036171696 0.0055089137 -0.00012316111 -0.0024104686 -0.0038673405 -0.0016007476 0.00351942 0.004736349
stock -0.001293363 -0.0040546134 0.0043458636 -0.0049543204 -0.004878537 0.0015757802 -0.00084972486 0.00015398987 -4.965687e-05 -0.003157515 0.0024817903 0.0010375675 0.0033606682 -0.0017692491 0.004680907 0.00070902845 -0.0030219725 0.00022297565 -0.005033359 0.0027554226 0.00050278206 -0.0042768554 -0.0025759982 0.0021506494 -0.0027287814 0.004806971 0.0005051803 -0.0034570862 0.0018778534 0.0011467016 0.004114493 0.001859122 -0.0030990688 -0.0025822194 -0.0047245375 -0.0042281314 0.003395916 0.0028069438 -0.004827492 -0.005117325 -0.0018012343 0.00041207857 0.00045421426 -0.0015518047 -0.0046044705 -0.002853563 0.00019912166 0.0036614006 0.0049202805 -0.0031320306 -0.003306838 0.004611145 0.0024776205 0.002759689 0.00018040939 -0.005517047 -1.1784055e-05 -0.0017491971 -0.0040830965 0.002195078 0.0018967232 -0.003358644 -0.0056628017 -0.003920204 0.0023783476 -0.0043974137 -0.005455121 8.11507e-05 -0.002819935 0.0028155134 -0.0006311979 0.0035078337 0.0011330431 -0.0036493174 0.00028501503 -0.0034289914 -0.0002951267 0.005319369 -0.00073601474 0.0033886414 -0.0011221805 0.0012571666 0.0035243642 0.0017399151 -0.0028104174 -0.0012516504 -0.0014132294 -0.0022532602 -0.00543699 -0.00016269778 0.0033756548 0.0015476979 -0.0025073308 0.0041608196 -0.0030171922 0.0053891004 -0.0022302975 -0.0049065645 -0.0041603046 0.0019628268
india 0.0045416816 -0.004368298 0.002053369 0.0037300207 0.0027842317 0.002973167 -0.003886097 0.0035325172 -0.0005861051 0.0019458656 0.0037299145 0.0015580932 -0.0032841903 0.0025227615 -0.0028815335 -0.0028722717 -0.0010969571 0.0006618239 -0.004261144 -0.0034652161 0.0013421994 0.0038545574 -0.0015674189 0.0021569266 -0.00036265145 -0.0036927436 0.0033715034 -0.0014093707 -0.002543152 -0.00047342997 -0.003188465 0.0017253719 0.0036487766 -0.0022599634 -0.0006968443 0.0040817247 1.4781447e-05 0.0022431114 -0.005658516 -0.003407464 0.002545892 0.0047336225 -0.0037858223 0.00214462 0.00062919944 0.0009124799 0.002250014 0.0017975452 -0.0033958373 -0.0049569644 0.0039844876 0.0016827288 0.0046664192 0.001102614 -0.0033793207 0.0037815904 -0.004387021 0.0039193216 0.0031644753 0.00047808306 -0.0009706054 -0.005006518 -0.0055281906 -0.004092461 -0.0029107586 0.002795616 0.0018435814 -0.006013881 -0.002255005 0.0007673942 -0.0029928507 0.001793006 -0.003082436 0.0016799725 0.00050887663 -0.0013111249 -0.0040044645 -0.004127486 -0.00048334934 0.0035373578 0.001294625 0.004141353 0.002623329 0.000959797 0.0034129359 0.0014938574 0.0012225057 -0.0048671765 -0.0042331554 0.0029781824 0.0026271504 0.0026234658 -0.0029055614 -0.002066928 -0.0020313547 -0.004390004 0.002457567 -0.005020402 -0.0026899867 0.0064426567
gains -0.0020115383 -0.0027389005 0.0023845527 0.0038578925 -0.00033963664 0.0030846172 -6.0639843e-05 0.0015797627 -0.002659285 -0.0041972776 0.0019360536 -0.004121557 0.0045638573 -0.003897867 0.00294461 0.0026362499 -0.0017673186 0.0025784636 -0.0014842565 -0.0031101715 5.3416257e-05 0.0033316133 -0.004491164 0.0021407173 0.0038938355 -0.0039022637 0.0037855548 -0.0017718099 0.00095477665 -0.00430484 -0.003178636 0.00019990744 -0.0026998809 0.003417932 -0.00057697954 -0.0020131492 -6.346705e-05 0.0012100252 0.0025795691 2.3203896e-05 -0.00040236933 -0.004364184 0.002151203 -0.00025235783 -0.0006052075 0.0004336478 -0.0001527791 -0.0006970501 0.004082085 -0.0033042645 0.0029227873 0.0049453145 -0.004173387 0.0049773064 0.0020408644 0.003208717 -0.0020443653 0.0039125825 0.0029962645 -0.0014148658 0.0045392793 -0.0013790207 -0.0025976798 -0.0043206685 0.0009765943 -0.00062915386 0.0021198483 -0.004597219 -0.0036907601 -0.002196429 0.003132431 0.00041706557 -0.0046281354 -0.0016960428 0.003906939 0.004881258 0.0023776293 0.00075827417 -0.0044224593 0.0045577106 -0.0038209702 0.00090723037 -0.0016473527 0.0044567175 -0.0031465688 -0.0013834286 0.0021649133 0.0007158793 0.0032215433 -0.0037001108 -0.00064725755 -0.0035624227 -0.0005424848 -0.00067166943 0.0010881576 -0.0027439804 -0.0025743549 0.0049434244 0.00080960337 0.001147225
7 0.0035184938 -0.0019358733 -2.050947e-05 0.00019123791 -0.0035591628 0.0052015404 0.0036326507 0.00033236152 0.0025037958 0.00092750345 -0.0034151191 0.0021684167 0.003543777 -0.0015227756 0.0021554413 -0.0037283746 0.0025397695 0.002363638 -0.0026322142 0.0039940346 0.0025174543 -0.00020331443 0.0012381522 -0.0018961985 0.0020193302 0.004968654 -0.0032845286 0.0018642308 0.0018882768 -0.001026082 0.0014849154 0.0006063749 -0.0020154556 -0.0041616037 0.0020024239 -0.0010357766 -0.004063883 -0.002563787 0.002649688 -0.0001383002 -0.0023213336 0.003028872 0.0025257412 0.0045373896 -0.0013281542 -0.0035504857 0.0022696704 0.0015487932 -0.0014971229 -0.00390035 0.0014777592 -0.0014424147 0.0020464272 0.0043854257 -0.004469836 -0.00088492036 0.001770062 0.0031971002 0.002447788 -0.0008510683 0.001559137 -0.0055637597 0.0015124857 0.0034207862 0.0048859273 -0.0039450773 -0.002048387 -0.002770063 0.0033022568 0.0044162157 2.2355665e-05 -0.00043592774 -0.00029632667 -0.0027452353 0.0020778386 0.0020383287 0.0014868203 -0.0011259111 0.004748662 0.0008138082 0.0052153817 0.0034232428 -0.0034899937 -0.0020648586 0.0048690797 0.00308799 -0.004328233 -0.0057009794 -0.0024895917 0.0017286282 0.001795388 -0.0029213405 -0.0037572007 0.00031183768 0.00088836823 -0.0025248583 0.0010877326 0.001246686 -0.00049834687 -0.0027344425
8 -8.921027e-05 -0.0013679835 0.004228237 0.002120914 0.0028657992 0.0052653058 -0.0011079884 -0.0051192455 0.004452738 -0.0007969697 0.0027953477 0.0028172324 3.318816e-05 -0.001928483 0.0005008992 -0.0022312365 -0.0014845207 0.0001730705 -0.0011362158 -0.00083389727 0.0039455425 0.0024819681 0.00058807817 0.0017174368 -0.0002529125 -0.0032323922 0.0024618113 0.00026307462 -0.004593035 -0.001418326 -0.00028533084 -0.0027871144 -0.003954694 -0.002995153 -0.0011940441 0.0030284578 0.0017651663 0.0028185886 -0.0015167373 -0.0011743071 0.0026581592 0.0015588633 -0.0028448214 -0.0007911954 0.002216914 -0.0014128853 -0.002879707 0.0035362612 0.0023013263 -0.0060209474 -0.0024345848 -0.0021505998 0.0031422381 0.0056367987 -0.0011982272 -0.0020855158 0.0029490853 0.0003483424 0.0016841777 0.004543363 0.0027584918 0.0026719444 -0.0036434021 0.0004766805 0.0017034566 0.0030429214 0.0034143985 -0.004945506 0.0046890443 0.00242624 0.00027810322 -0.00033321802 -0.0020462952 -0.002682736 -0.0015335989 0.002368329 -0.0002596856 -0.00085490075 -0.0018292954 -0.0006794221 -0.0028574702 0.0033187326 0.0025803137 -0.0012625731 -0.0027650753 0.00221875 0.0043372805 0.0010363148 0.0013615576 0.0011140411 0.0043904297 0.004782911 -0.002536424 -0.0034527155 0.0029128948 1.5615227e-05 -0.0028783586 -0.0021225405 -0.00063925213 -0.0034612191
amid 0.0014908407 -0.004944411 0.00072653685 0.00057173497 -0.0026358117 -0.00022423237 -0.0034384278 0.0034566955 0.0010284106 0.001809345 0.00019089782 0.0034960266 -0.0014825386 0.00081970764 -0.000921446 -0.0027782826 -0.0018126394 -0.00029390134 0.0036060514 -0.0020833353 -0.00028179397 0.0022053304 0.0004194063 0.0010765968 0.0015515456 -0.002724019 0.0061436538 0.0002995204 -0.0028398568 -0.004310508 -0.00088531827 -0.0018767486 0.005539034 0.001597222 -0.0030760625 -0.0044957544 -0.0016250499 0.003358902 -0.006534692 0.0044462844 0.0024447837 -4.7723523e-05 -0.0011751107 0.0042869938 0.0048438064 -0.00020672874 0.002089077 0.00044876948 -0.0020100542 -0.004552501 -0.00051932974 0.0033263427 0.0014147275 -3.6798734e-05 -0.0028685192 0.004142889 0.00025576437 0.0024299214 -0.0027760328 -0.004885003 0.0057664737 -0.0037327444 -0.0027431534 -0.0016187802 0.00096454617 -0.0048176595 -0.0055433367 -0.0035953068 0.0006383461 -0.0023549623 -0.0005824184 0.0013459973 -0.0038143191 0.00262031 0.0010389619 -0.001589533 0.004882802 0.005871955 4.8218513e-05 0.001970117 -0.0028475556 -0.00056760525 0.00014317984 0.0017175229 -0.00076713663 0.0017115973 0.000617026 0.0012394353 0.0033138853 0.0037625656 -0.0028141446 -0.0024706533 0.0007583996 0.0029330654 0.0030345886 0.0036014845 -0.0054138475 -0.0031436486 -0.0014023273 0.004607007
hot 0.005252932 1.1992199e-06 -0.0035924301 -0.0006976337 -0.0025947501 0.0042350264 0.001274169 0.0034528847 -0.002923212 -0.0017923503 -0.004551687 0.0020010984 0.0045106686 -0.003235189 -0.004403063 -0.0011987428 -0.0024857935 0.0013628474 -0.00055348047 -0.0012658869 0.004698566 -0.0027718914 0.0020516047 -0.00096843136 -0.0017628503 -0.00049408706 0.0055421973 0.0034722914 -0.004399247 -0.0016845373 0.0031214233 0.004591679 0.0051350826 -0.00042497172 -0.00060399494 -0.0022443777 -0.00036751892 -0.0040762755 -0.003916869 7.200381e-05 -0.0026200693 0.0035594231 -0.0021270604 0.0027439652 0.003382134 -0.0040388256 -0.0021533414 -0.0031945293 0.004442086 -0.00025346904 0.0049217395 -0.004339288 0.0050351303 -0.0022754024 0.0029140417 0.0001384031 -0.00037312455 -0.00022952243 -0.0040268064 0.0017099966 -0.00023999298 -0.0027786463 0.0005143328 -0.0034492314 -0.004855621 -0.0046828343 0.0019124513 -0.0028828147 0.0031424146 -0.001987941 0.0016739831 -0.002645044 0.0013157174 -0.0026241632 3.5549918e-05 -0.002986944 -0.0038261742 0.00019085735 0.0042830454 0.001148754 -0.0026276347 0.0012372783 0.003940565 -0.003520404 0.0034936704 0.0023441052 0.003933655 -0.001058917 -0.004866541 -0.00081782485 0.0030912117 -0.0020406619 0.0021337399 -0.00268029 -0.0026329814 0.0031641435 -0.0034722306 -0.004373594 -4.5246656e-05 0.00019425727
morgan 0.0023793944 0.00047340608 0.0017498668 -0.0051687183 4.499915e-05 0.0019023997 0.002569133 -0.00424041 -0.00064693636 -6.3150925e-05 -0.0026979058 0.0026327146 0.0042232177 0.003132574 0.0010075137 -0.002811993 -0.0045662085 0.004651419 0.0029960661 -0.0051132496 -0.002060333 -0.003274991 0.004396542 0.0014945312 0.0038442586 0.0017868244 0.0020310886 0.0040068524 -0.0012304166 -0.00059428817 -0.0033532174 -0.000991055 -0.0037295388 -0.00072055863 -0.005149944 0.005029988 -0.0040006256 -0.0045183487 -0.000408364 -0.0048856847 0.0025516434 0.0017662375 -0.0025846292 0.0018595513 0.00018642274 0.0025998824 0.003671148 0.004873673 0.0010086938 0.0019200426 -0.0026351258 0.004728635 0.0031530065 0.0015852676 0.0010452168 -0.00038269407 -0.002662699 -0.0009627856 -0.0024488983 -0.0041064625 -0.0023130756 -0.0035113473 -0.005677132 -0.002270754 0.0041256286 -0.0013834205 -0.0028645608 -0.004363432 -0.0008520513 0.0022943416 0.0010955761 0.004292204 -0.0033592212 0.002983813 -0.0025558085 0.0044471473 0.0020678195 -0.00035655068 0.00055265013 -0.0052446746 -0.00087564474 -0.002331186 -0.0030341137 0.0016131067 -0.0019703954 -0.0027594776 -0.0041308794 -0.005484879 0.0021999925 0.0037750055 0.005990232 -0.0046083503 0.00419039 -0.0028738603 -8.5570624e-05 0.005186213 -0.0044317343 -0.005234258 -0.0050444244 0.003649623
stanley 0.006185322 -0.0047374424 -0.0024544545 0.0006211947 -0.0056358944 -0.0005154728 0.0016591733 -0.0015513626 -0.0018995844 -0.0021945469 -0.002083312 0.0019381999 0.004428603 0.0015881789 0.0002793781 0.0029024077 -0.002490617 0.002909214 0.0025295122 -0.0011536863 -0.0017608206 -0.0055421535 0.0016476118 -0.0061698374 0.0039854767 -0.0023469839 0.00352384 -0.002283145 0.004251677 -0.004337425 -0.0049413554 -0.0036345355 -0.0028295096 -4.3672022e-05 -0.003155928 0.0017400251 -0.003673627 -0.0013177458 8.405163e-05 7.926578e-05 -0.004332029 0.00046130244 0.0029016794 -0.0034620254 0.004392614 -8.924934e-05 -0.0028426584 -0.004745205 0.0038146349 0.00033385318 0.004282804 -0.0019523328 0.0019202218 0.004577366 0.00012683083 0.0039178063 0.00030189115 -0.0024319007 0.0047510164 -0.003347276 0.003821532 0.002990921 -0.0060226102 -0.003875376 -3.543328e-05 0.0008423873 -0.0021384398 -0.0060882047 0.001247464 -0.0036923008 0.0005644612 0.0027648495 0.0022469857 -0.002132546 -0.0011156035 0.002174505 -0.00035345348 0.0024344623 -0.0037387784 -0.0017653296 -0.0008847399 0.004865125 0.0016323891 -0.004109797 -0.004422367 -0.001028842 0.0011787257 0.0004237792 -0.0043398566 -0.0031121816 -0.0022960478 0.0014939838 -0.0027835353 -0.003860378 -0.003231922 -0.0024848885 -0.0040251254 0.0018010361 0.001601301 -0.0028279915
indusind -0.0032422484 0.00024954986 0.0017277431 0.00096868107 0.004271965 0.003346599 -0.0027264168 0.00059991574 0.0046035345 -0.004980674 0.001166757 0.0038964923 0.004021111 -0.0008245234 0.0009510711 -0.0038668741 0.001776791 0.0013487391 -0.0007336088 -0.003344381 -0.0013545759 0.0013499496 0.0010267987 -0.0025189114 0.0023038916 -0.0038316543 0.0061775837 0.0033190497 -0.0009971263 -0.00481283 -0.0011758411 -0.005393727 0.003143471 -0.0016947001 -0.003444751 -0.0006446183 0.0045070974 -0.0026017525 -0.0043008355 -0.0005886081 0.0034651891 0.002123388 -0.0005857079 0.002934772 0.0041684727 0.0024887912 0.003352963 0.0033218127 0.0048703337 -0.0016007383 0.00036240753 -0.00413336 -0.003407689 -0.0021533717 -0.0014313593 -0.0010442083 0.002660462 -0.00013872045 0.0009298614 0.003743661 0.005031921 -0.00048544636 0.0035706966 0.004491133 0.0032132594 -0.0012843175 -0.005627185 -0.0035268671 0.003909567 -0.00282371 -0.0005775595 -0.00021391899 -0.005032139 0.004768285 -0.0015922067 0.00589007 0.0021439046 -0.0019510424 -0.0011426273 -0.0036994214 0.0023582755 0.0045546363 0.0005026828 -0.0029018773 0.004907842 0.004974835 -0.0011985713 0.0006985074 0.004184881 0.00231619 0.004611768 0.0032965215 -0.003897453 -0.0023137578 -0.0012830712 -0.00033931184 0.0030462341 0.0038872587 -0.0012653104 0.0031378933
nod 0.006138967 -0.00054407096 -0.00176646 0.0012986411 0.004211587 0.0027740353 -0.00039381228 -0.0046791336 0.003024525 -0.0015967353 -0.00035922794 -0.0020039454 -0.0027686462 -0.0037573327 -0.0001978935 0.00053610373 2.174899e-05 0.0046014665 0.0016848526 0.0036731884 0.0017457305 -0.0032713916 0.001053649 -0.006551566 0.0024526694 0.0015187177 0.001188981 -0.0025253254 -0.003679663 -0.0039774734 -0.005570063 -0.0024467476 0.0030358895 -0.0013899148 -0.0033421442 0.00050996133 -0.004413012 0.0030942287 0.00018710893 0.004001112 -0.0044326256 -0.001284401 0.0054946556 -0.00051188545 0.004413012 0.005344471 1.2170197e-05 0.0025891615 -0.0027495062 -0.0039490424 0.0047622225 0.0036298386 0.00033988958 -0.0010513504 -0.0016794716 -0.0051825573 -0.0020752826 -0.0011454975 -0.0037373789 0.0030056655 0.0035473534 -0.0011155191 0.0036533608 -0.0023110209 -0.0024138254 0.003690837 0.00067661144 0.0016453884 0.004634486 -0.002084324 0.0039557135 -0.0015066615 0.004036169 -0.0040164255 -0.0028866935 -0.0029052622 0.0012255486 0.0015329287 -0.0032584104 -0.0032943452 -0.0029724902 -0.0036119942 0.001177831 -0.0006920003 0.0023290736 -0.0030790777 -0.0026723081 -0.00682815 -0.0029409924 0.00036272523 -0.0012264015 -0.0006110778 -0.004991475 0.004299022 0.006260173 -0.0020199397 -0.0030548025 0.0025874383 -0.0045569735 0.0060627353
kotak 0.0015760519 -0.0050635175 -0.0033216802 -0.0034391468 -0.005153537 0.0051888446 0.0012468526 0.0026904352 -0.0008260914 -0.0014300658 -0.004218841 0.00013278742 5.6185695e-06 -3.5375986e-05 0.003202986 -0.0035122673 0.00012922108 0.003727118 -0.003741385 -0.0041304845 0.001718865 -0.0014543798 0.0034653645 -0.005119342 -0.0019668092 0.0037973563 -0.000981296 0.0045883902 0.0018917049 -0.0038632986 -0.0035022404 -0.00037539165 0.004933686 -0.0017317304 0.00015209701 0.001122642 0.003124127 -0.0027069517 0.0024730975 -0.0011883419 0.003475001 -0.0014398429 -0.0038171608 -0.0035480727 -0.0027514747 0.0014912807 -0.00013661492 0.00064580084 0.0041800155 -0.0058580358 0.0035584806 0.0026643018 0.0023165268 0.0032657424 -0.0017797298 0.000352005 0.0046171965 0.0016877487 -0.0048194462 0.0007397076 0.0018796354 -0.00010474746 -0.00080457283 0.0010422657 0.0018814068 -0.0012753163 -0.0046865167 -0.005126876 -0.0014037236 -0.004085334 -0.0011427377 -0.0020186093 -0.0033611492 -0.0014990182 0.0034519308 0.0036122296 0.0022248703 0.0052151303 0.001492037 -0.0009593596 -0.003408959 -0.00453881 -0.0007194796 -0.00028703775 0.0025137106 -0.0024734554 -0.0040657227 0.0034375135 -0.004224564 0.00029982344 -0.0007101049 0.0031249311 0.0034191678 0.0013352006 -0.0029850712 -0.001937186 -9.486404e-05 -0.004007243 0.00040504226 0.0059778574
52-week 0.00022990255 0.0036815808 -0.0017895777 0.0044470537 -0.0054449085 0.0004932338 0.0033848262 -0.0051121684 0.00022563015 -0.001771096 -0.0006805268 -0.003566591 0.0022978932 0.0016896494 0.004248319 0.0029557694 0.0037368964 -0.00020279118 -0.0025311604 0.00073884975 -1.7602106e-05 -0.00039490443 -0.0022687896 0.0022957951 -0.0002143434 0.0034743645 0.000762497 0.0013231596 -0.0017838149 0.0005517306 0.0013975684 0.0013426003 0.00031290806 0.0011627676 0.0039153122 -0.0004147591 -0.0015043588 0.0036467486 -0.0011022454 0.0006240969 -0.0046752417 0.0008253804 -0.0013450532 0.004692343 0.0048943707 -0.003849646 -0.0027122477 -0.0034189573 -0.002857677 8.451471e-05 -0.0018186138 -0.00010481298 -0.002194893 -0.0020380875 0.0032793279 0.003126738 0.00025059492 -0.00068357895 -0.005056312 0.0048544854 0.0059333895 -0.004516004 -0.0034765864 -0.004087117 0.0038520587 0.0024218184 -0.004987561 -0.0022890614 -0.0031609277 0.00085390155 0.00074286043 -0.0005092684 -0.00012240313 -0.005118223 0.0037067705 -0.0010593385 9.058559e-05 0.00063351134 0.0036617436 -0.0010192774 0.00037717313 -0.003095249 0.0001514985 -0.0021297028 -0.0040094536 0.004154525 0.003983952 0.0027940199 0.00041034256 0.004767491 -0.00082947954 -0.0025258765 -0.005488037 -0.004172683 0.00010621421 0.0022735596 0.0025216367 -0.0035841546 -0.0034909896 0.001644259
sensex 0.0051837084 0.0029532297 0.0010049489 0.0008982012 0.00026664566 0.0035819071 -0.0023580976 -0.0014130154 0.003714672 0.000528653 -0.004160183 -0.0046021203 0.002167878 0.0029401446 0.0019900042 -0.0006389223 0.0032953548 0.0027766386 -0.002323057 -0.0024585042 -0.003341765 0.00184272 -0.0019584543 -0.00020211689 -0.005114512 -0.0030418457 0.00065497257 0.0023093976 -0.0022973688 -0.0012349527 0.0039198673 0.0007100238 -0.0027574508 -0.0037088494 -0.0054650097 0.0043922663 -0.0019838847 0.0013450423 -0.0013744528 -0.0016051502 -0.004081393 0.0019014349 -0.0019460043 -0.0040281177 -0.0019686217 0.0017877809 -0.0018883259 -0.0013032042 0.0031575144 0.0011434137 -0.0023946576 -0.0046693753 -0.0046324525 0.0041591674 0.0034314245 -0.002355025 -0.0017076228 0.0022905539 -0.00326619 -0.001004782 -0.0011002833 -0.000652444 -0.002403453 -0.0034335046 -5.2400253e-05 -0.0021228557 -0.0017760964 0.00097603694 0.0007132542 -0.0013744456 0.0030297346 -0.0020262566 0.0014428152 0.00090320077 0.0043015955 -0.0038667766 -0.0047012796 0.003223054 -0.0007516053 -0.004864061 -0.0010782712 0.00015701295 -0.0040123756 0.0015219984 -0.0033021355 -0.0042821546 0.001653386 0.0027273209 0.00034562254 0.0038155299 0.0042248513 -0.002368826 0.0015952567 -0.0011550036 0.0039152587 0.003153919 -0.00053675094 0.0021093637 -0.00013516734 -0.002757267
target 0.0015864046 -0.0016715819 -0.0048464844 0.0009639193 0.0018655916 0.0035955235 0.002605184 -0.0033148644 0.0015004852 0.003559099 0.0017584501 -0.004107983 0.0030058206 -0.000123812 -0.0023862428 0.0025737383 0.0026798684 -0.0022536637 -0.0035300476 0.002261395 -0.00256584 0.0007775837 -0.00034234198 -0.0032392333 0.0039613647 0.0040805293 -0.0003765806 -0.002356907 0.0018845149 -0.0018856056 -0.0033957954 0.002477967 -0.0036953075 -0.00064244855 -0.003025193 -0.0021359131 0.004429367 -0.0019018737 -7.505702e-05 -0.00041644232 -0.00424574 -0.0010048345 0.0031248976 -0.0027648222 0.0049546557 0.0002596232 -0.0002194056 0.0028357927 0.0017705592 -0.0028032092 0.0012978312 0.0032549498 0.00073075056 0.0021275284 -0.0029637578 0.002614478 0.0009322372 0.0042882236 -0.0011310361 -0.0006449227 0.0008208363 -0.004823733 -0.0043796124 -0.00431663 0.0040597534 -0.0060198903 0.0018309136 0.0032978046 -0.00063627306 0.0010294524 0.0037023898 0.0028461309 -0.0035149518 -0.0052222223 0.004317747 -0.0031720793 -0.0049598077 0.004002114 0.0033060093 -0.003708974 0.0034266685 -0.00081049214 0.004716158 -0.0006210515 0.0028330344 -0.0034466202 0.0025846167 0.0022006622 -0.004265744 0.0009826933 -0.0010252785 -0.0024773416 -0.00496761 -0.0017643137 0.00470664 0.0028010567 0.0027454395 0.001112451 -0.0036483794 0.0022348505
top 0.0012286188 -0.0012042396 -0.0048860563 0.0011105632 -0.001805974 0.0052910326 0.005423907 0.0041501517 -0.0045164786 -0.002206449 0.0038506158 0.0017687663 0.0028076079 -0.0020512505 0.004021292 -0.0029522574 -3.9904353e-05 -0.0049417596 0.0047364985 -0.0046716863 0.004041724 0.0028901896 0.0030784763 -0.0062197917 -0.004684852 0.003520763 0.003195564 -0.0045966706 -0.0020246936 0.00097203994 -0.0038247362 -0.0035706281 0.0012234782 0.004862595 -0.0046882564 -0.0009111829 -0.004130628 -0.004526513 0.0005154979 0.0020312571 0.0011725392 -0.0028769865 0.0045144074 -0.005004285 -0.0042174514 -0.0013553228 0.0009988268 -0.0008171352 0.0056740977 0.00036039064 0.0034090434 0.0030090322 0.00021788417 -0.0030139056 -0.00046166228 -0.0019029593 -0.00064675417 0.0013645412 -0.000119447825 0.00050728186 0.005300734 -0.0037089635 -0.005375976 -0.0047247033 -0.0018001777 -0.0029063215 0.003685271 -0.001552217 0.003945946 -0.0035587593 -0.0026751815 0.00081477064 0.0010066121 0.00047742936 0.0029598747 0.0018204013 0.0025963106 2.8913317e-05 -0.003745901 -0.002159682 0.0010414785 0.0049617463 0.004057201 0.0016595233 0.003296343 0.0043350575 0.0014493687 0.0017984039 0.0030283555 0.0048144124 0.0039176657 -0.0013642814 -0.003308377 -0.0009881179 -0.00069879694 -0.0039196596 -0.0015164131 0.0005949951 -0.0047248914 -8.531263e-05
march 0.00044088543 -0.004837821 -0.0038064935 -0.0051350547 -0.0028012681 -0.00010587763 0.0031125534 0.0027150973 0.0018072429 -0.00079817075 0.0011097685 -0.003189051 0.002964759 -0.0018034491 2.7131227e-05 0.0025106864 -0.0008952003 0.0028980635 0.00071980694 -0.003716963 0.0048003662 0.0027392344 0.0042690514 -0.0020749269 -0.00028263626 0.0027201772 0.0028620677 0.0006343149 -0.0028358537 0.0012875147 0.00033477508 -0.0050679827 0.0020504766 0.000114609924 0.00021940045 -0.0030422688 -0.0014591183 0.0012539696 0.001231197 -0.0015386959 -0.0037331746 0.005264131 0.0011904134 -0.003437717 -0.0020118055 0.0007563216 -0.0017898913 0.0035621044 -0.0029819387 -0.0017658272 0.0013355501 0.00165717 0.004184708 1.1805972e-05 -0.0042018727 -0.004369947 0.0034173273 0.0014546225 -0.0030085614 -0.0023699796 -0.00079774496 -0.0042051678 -0.002438653 -0.0028334681 -0.0031556443 -0.0032380433 -0.005619336 0.0020505323 0.0028283703 -0.0029186858 0.0015060789 1.8765333e-05 -0.003018135 -4.9020462e-05 -0.0037819403 0.003626507 -0.00095614535 -0.0038775757 0.004666557 -7.014889e-05 0.0005293129 0.003498303 -2.560659e-05 0.0032339175 0.004572348 0.005145835 -0.0050182478 0.001251915 -0.0059516053 -0.00026259595 0.0058707106 -0.00011681271 -0.002976401 -0.0023422034 0.002906291 0.0022879122 -0.004082761 0.0017550009 -0.0022376834 -0.0008780627
coronavirus 0.00037337127 -4.5875982e-05 0.0025127789 -0.00038521824 0.0036977427 -0.002528452 -0.004147761 -0.0019255438 0.0019246868 -0.0031592518 -0.004337922 0.0013189734 -0.001362211 0.0015942634 -0.003010845 -0.0034721624 0.0048965216 0.0027712695 -0.002424963 0.0016694077 0.0037802942 0.0046690786 -0.0021444198 -0.003133516 -0.00019543164 -0.0022268365 -0.0036311778 0.004222867 0.0033119058 0.0021686556 0.0030020128 0.0003546496 0.002598972 -0.00018987095 0.0020097352 0.0015284107 0.002805462 0.0044917446 -0.0058435355 -0.0019595763 -0.0010991418 -0.0029777098 4.692842e-05 -0.0038286846 -0.00264192 -0.0020101855 0.0046513914 0.0023029407 0.0020501136 -0.0043385024 0.0014682095 9.632089e-05 -0.0017682933 0.0047002696 -0.00013291503 0.0012385083 0.0007508091 0.000771868 0.0044281655 -0.00026245986 0.0014135657 0.0023409964 0.0007223837 0.0051821037 0.00080062146 -0.006053254 0.0018974396 -0.00094008935 -0.0016266665 0.0008016083 -0.0005643442 0.0024905012 -0.00020404827 -0.0031064812 -0.0032800552 -0.0038722719 -0.002888992 0.0041199643 -0.0031165467 -0.003665103 -0.0012980558 -0.0033084038 0.0004865965 -0.0029250262 -0.0019819834 0.00507418 -0.004769325 0.00028893966 0.004045165 0.0023600638 0.0052797203 0.0043389658 -0.003251592 0.003126791 0.0041079307 0.005191196 0.003265724 0.0032801381 0.0036350605 -0.00087812694
time -0.0027119184 0.004221929 -0.002828913 0.0025373297 0.00040455538 -0.0026838288 -0.0043983986 0.004362756 -0.0015600796 -0.004632745 0.0020642048 0.000479785 0.0009830374 -0.0025086307 -0.00041357888 0.0024664951 0.0030449545 -0.0023181422 -0.0006405271 0.004948837 -0.0008964685 0.003936557 0.00068605004 -0.0055963723 0.0020764347 0.0008208097 -5.467437e-05 -0.00063849863 0.004907266 0.004229754 0.0018573544 0.004197015 0.005257921 0.0039376104 0.003875074 -0.00063276116 -0.0040269243 0.0007080782 -0.0018944854 -0.0033960238 8.947788e-05 -0.0037111 -0.0015528981 -0.004323002 0.0014262416 -0.0023093163 0.0031229132 -0.0021830532 -0.0018826466 -0.0059416397 -0.003634855 0.0016146713 0.0008966795 -0.0030648173 -0.005329737 -0.0025279445 -0.0021440743 -0.00036407504 0.0019684206 -0.002531518 0.0041361805 0.0021019613 0.0011313834 0.004925383 -2.0133239e-06 -0.0057840943 -0.0020231337 0.0008987652 -0.0017342713 -0.0010071717 0.002179702 -0.00046796157 0.0024477032 -0.0009811671 0.0036988326 0.0016148392 0.0015778017 0.0005954572 -0.0011055149 0.0018137649 0.003645831 0.0033395276 -0.0018899173 0.0012886876 -0.00046838165 0.0049690246 0.0012544947 0.0033093975 0.003969304 -0.0015496161 -0.003369809 -0.0036504492 -0.00031202467 -0.003724878 -3.818026e-05 0.0006686819 0.0035886797 -0.0025146266 -0.0033589585 0.005495207
tata 0.004248604 0.0010204981 -0.002766042 0.0015923416 -0.004568332 0.00185019 -0.0030814765 -0.0046174233 0.0047126925 0.0014401921 -0.0027756004 -0.0044504786 0.004734274 -0.002090825 0.0042657545 0.0016233254 0.0048430846 -0.0008504771 0.0042760423 0.0018939854 0.0047070347 0.0038741794 -0.002312294 -0.0027283486 -0.0023637465 -0.0026114704 -0.0022547878 -0.0035901275 0.0033423475 0.0023692765 -0.0032696228 0.0045842957 0.0029838241 0.0015278233 0.0013554936 -0.0004476657 0.0020823637 -0.0014736082 0.0026713733 0.002386016 0.004662309 -0.00074445055 -0.00021396212 0.0027482403 0.005344544 0.0028669108 0.0023467804 0.004459611 0.0011626218 -0.0021294104 -0.0034050785 -0.0016587788 -0.0007235812 -0.0031972986 0.0023730642 -0.0026232386 0.0037907525 0.0020332132 -0.0014731231 0.0019239746 0.001324956 -0.0038615768 -0.0052010547 0.0040678177 0.00446635 0.0012147307 -0.0021951941 -0.0032348447 -0.0024227188 -0.0024592534 0.0008503014 -0.0037696548 -0.0016851735 0.0015915048 0.003928724 5.025859e-05 -0.0040853443 -0.003975879 -0.0019288585 -0.003241694 -0.0041913837 0.000101313024 -0.0021468864 0.0047896616 -0.0017676019 0.0037756213 0.0029586796 -0.0010423118 0.0013983551 0.0024078311 -0.0015418467 -0.002251248 0.0027747585 -0.001629624 0.00027985385 -0.0032998973 0.0026726099 -0.00076567824 -0.0015329127 0.0023796277
drug 0.0005475055 -0.004443575 -0.000807095 -0.004602405 0.0018163683 0.0027073221 0.00011804014 -0.0037139484 -0.0011507482 -0.003640501 0.0036619753 0.00052318425 0.0032389944 0.0040359544 -0.003933641 -0.0027048574 -0.004003738 0.004770716 0.0012217772 -0.00038147808 0.0025097479 -0.0030749957 -0.0017631862 -0.005653297 -0.004754517 -0.0047525987 0.004143592 0.0035638886 0.002114664 0.0030490253 0.0046967245 9.944938e-08 0.004216539 0.0052088667 -0.004896552 0.0015440405 0.002513888 -0.00038652326 0.0030079791 -0.002767522 0.004655977 -0.0023286885 0.0022796069 -0.0025070792 0.002000597 -0.004622651 0.004216163 0.0017610927 0.0044685206 -0.0016347389 -0.0016855393 0.0019538363 -0.0027260457 0.0020724086 -0.0036887075 0.0034860477 -0.0038790079 -0.0026185205 0.001529226 0.00024242265 0.0048241345 -0.00080863753 -0.005236139 0.0023183906 0.0047154715 -0.0032926784 0.002212042 -0.0014685402 -0.0011230189 -0.0006188424 -0.004328023 -0.0027793467 0.002548209 0.00472606 -0.001967329 -0.0037624084 0.00072674785 -0.0005182616 0.0043226946 0.00056140183 0.003933755 -0.0031168584 0.0044737174 -0.0013096515 -0.0018496246 -0.0023534796 0.0016376646 -0.0030086609 -0.002998312 -0.0029304198 0.0002583851 0.002213571 -0.0046842652 0.0013399972 0.0022037432 0.00051583495 0.0027397384 0.002537782 0.0037852144 -0.0031834217
locked 0.0024910814 0.0016768313 0.0023074253 -0.0029396506 0.0033438513 0.0023950126 0.0022174567 -0.005040086 0.0034666532 -0.0017527952 -0.0048010354 0.00048580658 -0.0014371442 -0.0040927706 0.004974117 -0.0015547544 0.0033982845 -0.0018869468 -0.0026909595 0.0051416922 -0.0024565535 -0.0007380739 -0.00039846447 -0.0032523177 0.0016884722 -0.004368163 -0.00037005238 -0.0037418534 -0.0017931074 -0.0044238945 0.0010521087 -0.0038867672 0.0019715882 -0.0005101168 -0.0011390377 0.0044992985 0.00096647843 -0.0011637207 0.00081294705 0.0013637068 0.003516897 -0.0003456303 0.004957256 0.0032425974 0.0006432743 -0.003071452 -0.00075721956 -0.0045541637 0.0025428175 0.0025884875 0.0048148367 1.4392782e-05 -0.0030478083 0.0011391328 0.0019588054 0.0012470055 -7.904728e-05 -0.0010528227 0.0034924354 -0.0015804273 -0.0024732961 -0.003119068 0.003808541 0.0011660942 0.0029610181 -0.0030708194 -0.004510926 0.0016405134 5.061649e-05 0.0011521389 -0.003664734 -0.0006036332 -0.0046813875 0.0042820415 -0.005035572 -0.0030645165 0.0015988961 -0.0004965206 0.0030761296 -0.0015965088 0.0045480034 -0.0044989367 -0.0008780742 -0.0026692993 -0.0012265183 -0.00020818479 -0.0011127862 -0.0039385473 0.0017148431 0.0040172837 0.00541059 -0.003887967 -0.0017802698 0.001976985 0.002257255 -0.0005109807 -0.0011520138 0.004549088 0.00018904511 -0.0019635768
among -0.002392997 -0.0030081954 0.0022497072 -0.0012073027 0.0019457568 -0.00030973915 0.0032955369 -0.003609135 0.0052058506 -0.0001617067 0.0024924562 0.0038623696 -0.0030159745 -0.0042137746 0.004145837 0.0018206352 0.0042947116 -0.0025817712 0.00036817387 -0.0029937716 0.0010220902 0.00041819044 -0.0018403726 -0.00014891816 -0.0018551769 -0.003647216 0.002564071 0.0003109186 0.0022945143 -0.0021297873 -0.004118321 0.0006654689 0.0007915509 -0.003038391 -0.0013069531 -0.0032973455 -0.0027709878 -0.0017636236 0.003380925 0.0014944928 0.0040532355 -0.00032914733 0.0038863276 -0.0018427485 0.00083702616 0.0021263142 -0.0016561731 -0.0019837995 -0.0033698399 -0.0037188441 -0.002263263 0.0027543525 0.0047829775 0.002018188 0.0027486882 0.0021620865 -0.0019588135 -0.0026659505 -0.0025631732 -0.00329478 -0.0038063384 -0.0050877305 -0.0036291818 0.0029334084 -0.0013585103 -0.0039872313 -0.000394612 -0.0042673945 -0.0024656572 -0.00211215 0.001590226 0.004416372 -0.0009980164 0.0011461442 -0.005002968 -0.0027887656 -0.00062585354 0.002164829 0.005306956 0.0026051344 0.0050337883 0.0016337249 0.0046152226 -0.0010489755 -0.003081001 0.004742236 -0.0039205123 0.00197344 -0.0024983762 0.0032716827 -0.00011407583 -0.0017914376 -0.0052791145 0.0036921317 0.0023882722 -0.0041259415 -0.0007407925 -0.0026430234 -0.0026432842 0.005091579
high 0.003846876 -0.004323421 -0.0029890228 -0.003930131 0.0016545756 -0.002959853 0.0005707871 0.000841469 0.0015344354 0.004342936 0.0044767023 0.0004680483 0.003440065 -0.0036133188 0.002772456 9.1033995e-05 0.0030516686 -0.002984108 -0.0034980548 -0.0044707903 0.0040090582 -0.0050768005 0.0016933772 -0.0019814747 -0.0015046227 -0.0036592935 0.0048975195 -0.00066385546 4.866232e-05 -0.0012850849 -0.0008748704 -0.0045757573 0.0011605253 -0.0020743131 0.0023264284 -0.0037473051 -0.0026580766 1.7372242e-06 -0.0031625498 -0.002031154 -0.0026733507 0.00077587465 0.0010243744 -0.004771517 0.0028573144 0.000485356 0.0048520374 -0.0017155865 0.0057472284 0.0008292447 0.0021665315 -0.0028493048 0.0013586155 9.452966e-05 -0.0038671407 0.0024495986 0.0033362142 -0.00015302873 0.002548374 -0.0041863974 0.0011896078 4.783507e-05 -0.0041630166 0.00044507402 -0.0023459373 0.00010377646 -0.0055177636 -0.0037907874 0.00027378794 -0.0046781776 -0.0026714122 0.0020179912 0.0020456612 0.0031895265 -0.0018370266 0.0016413962 0.0019075386 -0.0032558993 -0.00120133 0.00055646227 0.004559662 -0.004169687 -0.00034408367 -0.004342777 0.0050539896 0.0032879144 -0.00026940988 0.0032520588 -0.00039433554 0.00013609965 -0.0022762662 0.0014180413 0.0013243466 0.0037586219 0.0020297114 0.0039022986 -0.00054879993 -0.0038285716 -0.00020783037 -0.0018551504
bottom -0.002849364 -0.0032966586 0.0009900755 0.0037839958 0.0023188146 0.0022594403 0.0048085945 0.0045765257 -0.0037931516 -0.002352841 0.0031534196 -0.0026579448 0.0048241885 -0.00025254374 0.0010129116 0.0015500468 -0.0008225361 -0.002828238 0.0008449062 0.0017454801 0.002767583 -0.00219519 0.0019631598 0.0030805778 0.0002329525 -0.0023198847 0.00028530438 0.002425587 -0.001573757 -0.0020124342 -0.004412243 -0.0049430374 -0.0034080711 0.0012370464 0.003145691 0.00029416502 -0.002666207 -0.00047975616 -0.00595019 0.002952603 0.002715744 -0.0010083346 0.0009406184 0.0045747757 -0.0026990683 0.00038045828 0.0019529727 -0.00146867 -0.0018929318 0.0015402314 0.0006008186 0.004277486 -0.0021300595 0.0026769203 0.0023309533 0.0017435369 -0.004253436 -0.004200272 0.0035032101 -0.00016512934 -0.0039472533 -2.7582035e-05 -0.00086375483 0.0029888095 -0.00071002333 -0.004803262 -0.0032846332 0.001857414 0.005342257 -0.0018151895 0.003953717 -0.0024944055 -0.0038698688 0.003993882 0.0041843355 0.004477377 -0.0004269355 0.0043166415 0.003701061 -0.005115765 -0.00066145044 0.0016325756 -0.00131216 0.0041376725 -0.0030014578 -0.004358173 -0.0021676917 -0.003053091 -0.0011871611 -0.0019585257 0.004516344 0.003083865 -0.005460731 0.00043817607 0.0010445436 0.00050269027 -0.000579172 0.00342281 5.7931073e-05 0.0031983226
lower 0.0040222122 -0.0024592972 -0.0031532329 0.0029280158 -0.0031545463 0.005023265 -0.0015302489 0.003369794 0.0049475436 0.0017161323 -0.00045742042 -0.0038078944 0.001958419 0.0012227612 0.0011006577 0.0017030207 -0.0047151498 0.0012396905 0.0012205401 0.00511086 -0.00048032796 0.0011018312 -0.0047332267 -0.0051479214 -0.004722794 -0.0036843596 0.00046792833 0.0025965092 0.00026258774 -0.0047573987 -0.0041253883 -0.000552188 -0.0042028455 0.0033191526 -0.0016100087 0.003853924 -0.003573488 0.0040179775 -0.0020353522 0.004536929 -0.005182706 0.004516295 0.0042686607 0.0028139725 0.004348406 0.0020342066 0.0033309483 -0.001914469 0.005554308 0.002538959 -0.0015950762 0.004465634 -0.0006982896 -0.0024013664 -0.0032485335 -0.0038652641 0.0008102359 0.0036866358 0.00019336671 -0.00030222925 0.0015373202 -0.0008311071 -0.0031066246 0.0035219286 0.0030675854 -0.0052058133 -0.0006219568 -0.0011497767 -0.00081640435 -0.0025664521 0.0045441864 0.004723632 0.004574092 -0.0028033415 -0.003346081 -0.0030130118 0.00071108504 0.002731181 -0.0019190699 -0.0020504277 0.0025940712 0.0018694832 -0.0018759579 -0.0028708018 0.0006201271 0.0049238107 -0.0033756737 -0.0042388695 0.0029992603 0.0023428616 -0.00093113224 -0.002530935 -0.0024218466 0.0005783443 -0.0018236178 0.0038319556 -0.0035715892 0.002187829 -0.0043035075 0.0014007967
12 -0.0017880433 0.0016573237 0.0033899434 0.0033974773 0.0033309152 -0.0042095194 -0.00049696927 0.0040243175 -0.0013469371 -0.00013224935 0.0041194838 -0.0013746758 0.00052521384 0.0024856578 -7.711271e-06 -0.00013439867 -0.0014983251 -0.004050383 -0.0002128846 -0.00012110054 0.005585909 -0.0025050729 -0.0046472303 0.0016461749 -0.002387176 0.00022145124 0.006074413 -0.0007592349 -0.00062045886 -0.0048553008 0.0011994385 -0.0040118564 -0.0014328624 -0.0031350884 -0.0005358523 -0.0025563668 0.0038443657 -0.003595077 -0.0015153657 0.0014241587 0.0013589619 -0.003354934 0.004962348 -0.0009197388 -0.0023289244 -0.00387965 -0.0015341493 -0.004189686 0.000183648 -0.00082546246 0.0025684305 -0.0028349485 -0.0025740128 0.0015509231 -0.003743979 -0.0050717713 0.0032832478 0.0022978156 0.0023586815 -0.0006905424 0.004127692 -0.00030971805 -0.0054360046 0.0041249413 -0.0011925154 -0.0036656777 6.5167274e-05 0.0017143454 -0.0026312994 0.0018214714 -0.0035908194 0.0041087023 0.0036753758 0.003421914 -0.0048652915 0.0014273663 0.0014048696 0.003531694 0.0016819527 0.0032500783 0.004826632 0.0037114588 -0.0048414874 -0.003233578 0.002485785 0.0026319192 -0.0019965938 -0.006455871 0.00029135187 0.002598868 0.00042434226 0.0033090876 -0.0040248875 0.002593318 0.00246154 -0.0031623347 0.0005754212 -0.0020242506 0.0032533081 0.00055873516
stake 0.0032086887 0.0040558297 -0.0051919706 -0.0036248218 -0.0031337272 0.0012795802 0.00012312441 -0.0011779098 -0.0030756905 -0.0031857286 -0.0040159537 -0.0015840655 0.0042594867 -0.0049491483 -0.0038745631 -0.0014696217 7.572285e-05 -0.0019200797 0.0013293412 -0.0047328053 0.0048050676 -0.00031513482 -0.0025116883 -0.0007746451 -0.0020217653 0.0024807975 0.005780195 0.0033278188 0.0017925524 0.0023079216 -0.0028042682 -0.0010225999 0.004305561 -0.000636293 -0.00096993573 0.004375224 0.003085543 0.00062451663 0.0018673261 0.00043081795 0.0023815979 -0.0014907266 0.0007453544 0.002445582 -0.0018861372 0.0030926727 -0.004359299 0.004413598 -0.00014734275 -0.003213571 0.0049266266 -0.0027785285 0.003277554 0.0028851773 0.00089736795 -0.0016388762 0.0021048386 -0.003740687 -0.003868642 -0.0023690665 -0.0022239888 0.0020842564 -0.0016767285 -0.0043097627 -0.0003414033 -0.0014375414 0.0012978376 0.002933688 -0.00027680924 0.0022852442 0.0028436147 0.003101442 0.003501675 0.0018067866 0.0015450437 0.0042287465 0.00036451322 -0.0015454785 0.0019943302 -0.0010448091 0.004479569 0.00441514 -0.004679975 0.004299026 -0.002091635 0.0010802418 -0.0025872109 -0.0035771164 0.0022026447 0.0032614348 0.0054275296 -0.0034580657 0.002627391 -0.002095304 0.0056109065 -0.002008795 0.0008107765 0.00302652 -0.0026885583 0.00050334557
opportunity 0.0008190679 -0.0050797826 0.0026136797 0.0016214984 -0.0027818494 0.0006621946 0.0042331573 0.0014473253 0.003758733 0.0036063096 0.00034410635 -0.0010819068 -0.00393342 -0.0028304816 0.0031654988 -0.0040523666 0.0024222226 0.0032227726 -0.0019591965 -0.0018176888 0.00324543 0.0043019634 -0.004097047 0.0034806656 -0.00046923998 -0.0025702815 0.001978752 0.0035132228 0.0016084773 -0.0029421293 -0.005217285 -0.0018563991 0.004556875 -0.0015087501 -0.002296413 0.0024625484 -0.0034214214 0.0030562503 0.00030831093 0.002103991 0.0024962104 0.0025927657 0.0018097691 0.0036861056 0.0029808406 0.0020929908 0.0033922622 -0.0050757257 -0.0014807691 -0.00081970653 0.0025859713 -0.0040261024 0.0029774227 0.0011246509 -0.0008389821 0.00012778139 -0.0009640646 0.002227428 -0.0034280482 -0.0029102585 -0.0017843478 0.003941438 0.0022985535 -1.4730383e-06 -0.0045688 -0.0031475674 -0.0026291504 0.0018270869 -0.003979287 -0.0044149696 0.004566615 -0.003896165 -0.0040266872 0.00076107396 -0.0023791778 0.0030289777 0.0024912655 -0.000453119 -0.0009336124 -0.0033016722 -0.0005621707 -0.003280036 0.0044338787 0.0033988117 -0.00070908957 0.0014168642 0.00077213766 -0.005776427 0.0005086494 0.004368771 -0.004272636 3.0270437e-05 0.00017240683 0.0041155443 0.00056846614 -0.002493926 -0.0027321703 0.0036680356 0.0026941309 0.0037453354
itc -0.0021227193 0.001082759 0.00017635353 -0.0007353404 -0.003778676 0.003190148 0.0044615204 -0.0019387568 0.0031419948 0.00088045985 0.0029011536 0.0011246216 0.005284776 0.0013011725 -0.00094835943 0.0006723276 0.0011358322 -0.003991311 0.0048994487 -0.00018759961 0.0051966864 -0.00083795085 -0.00012295146 0.0013033283 -0.004008248 0.00200242 0.0024312644 -0.00069973164 -0.0019054174 -0.0039981157 -0.0051175915 -0.0044523566 0.0048841974 0.00521337 0.00026349153 0.0026160476 -0.0022921008 0.0037364564 -0.0026058138 -0.0036746035 -0.0011699925 0.0017204224 -0.0033623446 0.0044793095 0.0010470644 0.0010388558 0.0045628003 0.0047952714 0.000963811 -0.0057090633 0.0023849618 0.0049131815 -0.00032572422 -0.0023255262 0.0014390713 -0.0018854315 -0.0002507243 0.00394762 0.0010580316 -0.0020631205 -0.00019612075 -0.0045179487 -0.0039916323 0.003924271 -5.2533785e-05 -0.0038686232 -0.0006660062 -0.004222245 0.0018624258 -0.0047929576 0.0030985002 -0.0010844133 0.0020377068 0.00069597055 0.0046980176 0.0045698904 0.0033589886 -0.0010165685 0.001487801 -0.0044625956 -1.8358063e-05 0.0038600657 0.0010049328 0.005187862 -0.0019844475 -0.0040914756 0.004609798 0.0023055745 0.0006479866 2.768511e-05 0.004731631 0.00039134044 -0.0025294384 0.002305478 -0.001363488 -0.0024911265 -0.0026747822 -0.0016108851 -0.004778794 0.006013778
earnings 0.001867736 -0.0045630457 -0.0051328526 0.004396578 0.0019686085 0.0033573343 -0.0016558549 -0.0014102146 0.0014666818 -0.0032429744 0.0042150794 -0.00440303 -0.004124158 0.0027339791 -0.0030935584 -0.0015612907 -0.00096058426 0.0032127046 -0.0013067944 0.0027512836 -0.0021025096 -0.004553057 -0.0031099734 0.002311819 -0.004471 0.00023411526 0.0011083519 0.004051051 0.0033917753 -0.0040983288 8.115648e-05 0.00045270723 -0.0029217359 -0.002378519 -0.0046571675 -0.0011565827 -0.0028404754 -0.0036949615 0.0022146162 0.0030003036 -0.001485638 0.0040899706 0.004605256 -0.0034528875 0.0026813848 0.00026477056 -0.0033862304 0.0010845313 0.00029209795 0.002860573 0.0042312047 0.0023531818 -0.0029429644 0.0043866313 -0.003094954 -0.0020471744 0.0025525829 -0.00266218 0.0023537795 0.0045295465 0.00021577592 -0.001765905 -0.00056857895 0.0038976255 0.0023613402 -0.0023536286 0.0028507474 -0.0023835034 0.0044100843 -0.0017209454 0.0017180609 0.0025677185 -3.7992638e-06 -0.0015169448 0.0040994734 -0.002705995 -0.0007282975 0.00039150746 0.0039784885 -0.0014254897 0.0020145208 -0.003575065 -0.0025410806 0.0015461909 -0.00021724009 0.0042085717 0.0026515482 0.0008886566 -0.0013545163 -0.003085546 0.0020256066 0.0012409606 -0.0045990483 0.00531243 -0.00295806 -0.00198748 -0.0017646202 -0.0019074054 -0.0032326651 0.0012360426
led 0.0023212093 0.0046916003 0.00069947774 0.003455836 0.00044022244 2.4391393e-05 0.0009607248 -0.00079670496 0.0013346093 -0.0005676803 -0.0020407313 -0.00030741136 0.0033671113 0.0040969807 0.00075249217 0.0039106463 -0.0034642962 0.002594921 0.004436806 -0.0013026468 0.0025452296 -0.0052222777 -0.0017904507 -0.0047531715 -0.002841577 0.004536734 0.00404158 0.00060627604 7.172609e-05 -0.0029599087 0.004156897 -0.001886036 0.0005548147 -0.0023029717 -0.0026697174 -0.0008927915 -0.0041621607 0.004688838 -0.001103122 0.002233947 -0.001011259 0.0019303448 -0.0009698323 -0.0047670393 -0.001439406 0.002560853 -0.004477219 0.002351257 0.002430372 -0.003507195 0.0048387037 0.0018181396 0.00021139019 -0.0015548586 -0.0028887943 0.002797613 -0.0035263652 0.0003562233 -0.0030533944 0.0049560117 0.0059139407 0.0030627544 -0.0053842016 -0.00053719257 -0.003970073 0.0007122732 -0.0010593203 -0.003625991 0.0015749788 0.0002870624 -0.0036436021 0.00492598 -0.0028897282 -0.002096448 -0.00065343257 0.00024676384 -0.0048612175 0.0030259127 -0.0015875808 0.00105774 0.003308523 0.003990566 0.0024715774 -0.0021639552 0.0028641878 0.0053611826 -0.0011203778 0.0016438876 -0.0038528307 0.004681116 0.0018032383 -0.0024014632 0.00019123661 0.001275947 0.004056019 -0.0026907653 -0.0012549014 0.0022549022 -0.0055766804 0.0012701625
slips -0.0006070798 -1.5373262e-05 -0.0034395256 0.0019228704 -0.0032690566 0.00067415327 0.0036698836 0.0019242262 0.0046007894 -0.0048860298 -0.002705891 -0.004205767 -0.0023726579 0.0016884194 0.0009949312 0.0036642104 -0.0008548532 0.0018876893 0.002409353 -0.001336951 0.0048678326 -0.0040956303 -0.0047285683 0.001337672 -0.0031299293 0.0005522008 -0.0030665519 0.00399036 -0.0021280008 -0.0035426945 -0.001893002 0.0003191828 0.0038067345 -0.0042038597 -0.0024914313 -0.0015898739 0.004412061 0.0021245237 0.0017467604 -0.0033505126 0.0001794729 -0.0031083135 -0.0026800125 0.0037843797 -0.00056987227 -0.0031764342 0.0030206663 -0.0029485938 0.0030919516 -0.003241645 -0.0037487608 0.0010728716 -0.004455957 -0.00017147968 0.0007850955 -0.004829513 0.00031345358 0.003204177 -0.0014282652 -0.001574323 0.0040921117 0.0030073503 -0.004317053 -0.004723225 -0.0019000998 -0.0058147707 -0.0056499774 -0.0055320463 -0.00089570007 0.0006198475 0.00025862147 0.0017158415 0.0024938744 -0.0013817158 -0.001067199 -0.00063315965 -0.0010703652 -0.003765248 0.0040449826 0.0033499382 -0.0007483312 0.0022884146 0.0023388346 -0.004313379 0.00031090493 -0.003311525 -0.002879154 -0.0055239066 -0.005671038 0.001074904 0.0034380413 -0.0050977324 0.004210301 0.00028253725 -0.002903394 -0.00048190274 0.003381287 0.0038718584 -0.0035458459 -0.00012883781
20 -0.0026098585 0.0025664014 -0.00041261726 -0.0041689817 -0.003881703 -0.0040475624 0.004638442 -0.004856205 -0.00033659936 0.0013185265 0.003286994 -0.0032237573 0.004168624 -0.003404837 0.0011911892 -0.0034753124 0.0031548527 -0.0028562779 -0.0050072493 0.0015120875 3.5320954e-05 -0.0019530576 -0.0006502758 -0.0053556147 0.0015989959 0.0010906176 0.0005039424 0.002951634 -0.0045747454 -0.0013968159 -0.003130137 0.0007874565 -0.0016494945 0.003873346 -0.0042823986 0.00047474337 0.00029274737 0.004706191 0.0014067019 0.0035901119 -0.0025401837 0.0030022594 0.0048734252 -0.0044825086 -0.0040163165 -0.00034862195 0.0046574874 -0.0042610313 0.0026654226 -0.0031425862 -0.0037992264 0.0046675582 -0.0039654844 -1.6078824e-05 0.00338672 -0.0009125174 0.003967716 0.0007116963 -0.0012263579 0.0021613666 0.0014263769 9.444022e-05 0.00060305465 -0.0049092453 -0.0042749858 0.0022785629 -0.0031537595 -0.006100488 0.004657161 -0.0024534052 -0.003659561 -0.0023378448 0.0006781514 -0.0013392583 -0.0026823198 0.0033521915 -0.0033517678 0.0028437404 0.0042275847 -0.0028511067 0.0038238657 -0.0016937803 -0.004570425 -0.0045472947 -0.0013820623 0.004399985 0.0008199041 -0.0019639053 0.00036233524 0.0030735172 -0.000874404 0.0030370776 -0.0038208107 0.0003754398 0.00053962495 -0.0022376683 0.0018756808 -0.0016216008 -0.005123452 0.0012247786
